digraph Tree {
node [shape=box, style="filled, rounded", color="black", fontname="helvetica"] ;
edge [fontname="helvetica"] ;
0 [label=<Déperditions_murs &le; -0.172<br/>squared_error = 1.0<br/>samples = 11248<br/>value = -0.0>, fillcolor="#fffefe"] ;
1 [label=<Deperditions_baies_vitrées &le; 1.359<br/>squared_error = 0.045<br/>samples = 8663<br/>value = -0.055>, fillcolor="#fffffe"] ;
0 -> 1 [labeldistance=2.5, labelangle=45, headlabel="True"] ;
2 [label=<Deperditions_enveloppe &le; -0.443<br/>squared_error = 0.04<br/>samples = 8662<br/>value = -0.055>, fillcolor="#fffffe"] ;
1 -> 2 ;
3 [label=<Deperditions_enveloppe &le; -0.45<br/>squared_error = 0.007<br/>samples = 4747<br/>value = -0.101>, fillcolor="#ffffff"] ;
2 -> 3 ;
4 [label=<Deperditions_enveloppe &le; -0.452<br/>squared_error = 0.0<br/>samples = 2024<br/>value = -0.129>, fillcolor="#ffffff"] ;
3 -> 4 ;
5 [label=<Type_énergie_n°1_Électricité &le; 0.158<br/>squared_error = 0.0<br/>samples = 1116<br/>value = -0.14>, fillcolor="#ffffff"] ;
4 -> 5 ;
6 [label=<Deperditions_enveloppe &le; -0.453<br/>squared_error = 0.0<br/>samples = 301<br/>value = -0.151>, fillcolor="#ffffff"] ;
5 -> 6 ;
7 [label=<Etiquette_DPE_D &le; 0.336<br/>squared_error = 0.0<br/>samples = 111<br/>value = -0.159>, fillcolor="#ffffff"] ;
6 -> 7 ;
8 [label=<Surface_habitable_logement &le; -0.542<br/>squared_error = 0.0<br/>samples = 89<br/>value = -0.162>, fillcolor="#ffffff"] ;
7 -> 8 ;
9 [label=<N°_étage_appartement &le; 6.297<br/>squared_error = 0.0<br/>samples = 79<br/>value = -0.164>, fillcolor="#ffffff"] ;
8 -> 9 ;
10 [label=<Etiquette_DPE_E &le; 0.713<br/>squared_error = 0.0<br/>samples = 78<br/>value = -0.164>, fillcolor="#ffffff"] ;
9 -> 10 ;
11 [label=<Surface_habitable_logement &le; -1.046<br/>squared_error = 0.0<br/>samples = 76<br/>value = -0.165>, fillcolor="#ffffff"] ;
10 -> 11 ;
12 [label=<Deperditions_planchers_bas &le; -0.439<br/>squared_error = 0.0<br/>samples = 28<br/>value = -0.17>, fillcolor="#ffffff"] ;
11 -> 12 ;
13 [label=<Déperditions_ponts_thermiques &le; -0.445<br/>squared_error = 0.0<br/>samples = 27<br/>value = -0.171>, fillcolor="#ffffff"] ;
12 -> 13 ;
14 [label=<Période_construction_2006-2012 &le; 1.303<br/>squared_error = 0.0<br/>samples = 24<br/>value = -0.173>, fillcolor="#ffffff"] ;
13 -> 14 ;
15 [label=<Déperditions_ponts_thermiques &le; -0.448<br/>squared_error = 0.0<br/>samples = 18<br/>value = -0.174>, fillcolor="#ffffff"] ;
14 -> 15 ;
16 [label=<Déperditions_renouvellement_air &le; -0.498<br/>squared_error = 0.0<br/>samples = 9<br/>value = -0.175>, fillcolor="#ffffff"] ;
15 -> 16 ;
17 [label=<Deperditions_baies_vitrées &le; -0.479<br/>squared_error = 0.0<br/>samples = 6<br/>value = -0.174>, fillcolor="#ffffff"] ;
16 -> 17 ;
18 [label=<Période_construction_après 2021 &le; 4.891<br/>squared_error = 0.0<br/>samples = 2<br/>value = -0.176>, fillcolor="#ffffff"] ;
17 -> 18 ;
19 [label=<squared_error = 0.0<br/>samples = 1<br/>value = -0.175>, fillcolor="#ffffff"] ;
18 -> 19 ;
20 [label=<squared_error = -0.0<br/>samples = 1<br/>value = -0.176>, fillcolor="#ffffff"] ;
18 -> 20 ;
21 [label=<Isolation_toiture_(0/1) &le; 0.506<br/>squared_error = 0.0<br/>samples = 4<br/>value = -0.173>, fillcolor="#ffffff"] ;
17 -> 21 ;
22 [label=<Deperditions_baies_vitrées &le; -0.478<br/>squared_error = 0.0<br/>samples = 2<br/>value = -0.174>, fillcolor="#ffffff"] ;
21 -> 22 ;
23 [label=<squared_error = 0.0<br/>samples = 1<br/>value = -0.174>, fillcolor="#ffffff"] ;
22 -> 23 ;
24 [label=<squared_error = 0.0<br/>samples = 1<br/>value = -0.174>, fillcolor="#ffffff"] ;
22 -> 24 ;
25 [label=<Qualité_isolation_menuiseries_très bonne &le; 0.752<br/>squared_error = 0.0<br/>samples = 2<br/>value = -0.173>, fillcolor="#ffffff"] ;
21 -> 25 ;
26 [label=<squared_error = 0.0<br/>samples = 1<br/>value = -0.173>, fillcolor="#ffffff"] ;
25 -> 26 ;
27 [label=<squared_error = 0.0<br/>samples = 1<br/>value = -0.173>, fillcolor="#ffffff"] ;
25 -> 27 ;
28 [label=<Année_construction &le; 1.587<br/>squared_error = 0.0<br/>samples = 3<br/>value = -0.178>, fillcolor="#ffffff"] ;
16 -> 28 ;
29 [label=<Deperditions_baies_vitrées &le; -0.478<br/>squared_error = 0.0<br/>samples = 2<br/>value = -0.178>, fillcolor="#ffffff"] ;
28 -> 29 ;
30 [label=<squared_error = 0.0<br/>samples = 1<br/>value = -0.178>, fillcolor="#ffffff"] ;
29 -> 30 ;
31 [label=<squared_error = -0.0<br/>samples = 1<br/>value = -0.178>, fillcolor="#ffffff"] ;
29 -> 31 ;
32 [label=<squared_error = 0.0<br/>samples = 1<br/>value = -0.177>, fillcolor="#ffffff"] ;
28 -> 32 ;
33 [label=<Qualité_isolation_menuiseries_moyenne &le; 0.09<br/>squared_error = 0.0<br/>samples = 9<br/>value = -0.173>, fillcolor="#ffffff"] ;
15 -> 33 ;
34 [label=<Deperditions_baies_vitrées &le; -0.48<br/>squared_error = 0.0<br/>samples = 5<br/>value = -0.172>, fillcolor="#ffffff"] ;
33 -> 34 ;
35 [label=<Année_construction &le; 1.283<br/>squared_error = 0.0<br/>samples = 3<br/>value = -0.173>, fillcolor="#ffffff"] ;
34 -> 35 ;
36 [label=<Déperditions_murs &le; -0.357<br/>squared_error = 0.0<br/>samples = 2<br/>value = -0.173>, fillcolor="#ffffff"] ;
35 -> 36 ;
37 [label=<squared_error = 0.0<br/>samples = 1<br/>value = -0.174>, fillcolor="#ffffff"] ;
36 -> 37 ;
38 [label=<squared_error = -0.0<br/>samples = 1<br/>value = -0.173>, fillcolor="#ffffff"] ;
36 -> 38 ;
39 [label=<squared_error = -0.0<br/>samples = 1<br/>value = -0.172>, fillcolor="#ffffff"] ;
35 -> 39 ;
40 [label=<Qualité_isolation_enveloppe_insuffisante &le; -0.098<br/>squared_error = 0.0<br/>samples = 2<br/>value = -0.171>, fillcolor="#ffffff"] ;
34 -> 40 ;
41 [label=<squared_error = 0.0<br/>samples = 1<br/>value = -0.171>, fillcolor="#ffffff"] ;
40 -> 41 ;
42 [label=<squared_error = 0.0<br/>samples = 1<br/>value = -0.17>, fillcolor="#ffffff"] ;
40 -> 42 ;
43 [label=<Deperditions_baies_vitrées &le; -0.478<br/>squared_error = 0.0<br/>samples = 4<br/>value = -0.174>, fillcolor="#ffffff"] ;
33 -> 43 ;
44 [label=<Deperditions_baies_vitrées &le; -0.478<br/>squared_error = 0.0<br/>samples = 2<br/>value = -0.175>, fillcolor="#ffffff"] ;
43 -> 44 ;
45 [label=<squared_error = 0.0<br/>samples = 1<br/>value = -0.175>, fillcolor="#ffffff"] ;
44 -> 45 ;
46 [label=<squared_error = -0.0<br/>samples = 1<br/>value = -0.176>, fillcolor="#ffffff"] ;
44 -> 46 ;
47 [label=<Déperditions_ponts_thermiques &le; -0.446<br/>squared_error = 0.0<br/>samples = 2<br/>value = -0.173>, fillcolor="#ffffff"] ;
43 -> 47 ;
48 [label=<squared_error = 0.0<br/>samples = 1<br/>value = -0.172>, fillcolor="#ffffff"] ;
47 -> 48 ;
49 [label=<squared_error = 0.0<br/>samples = 1<br/>value = -0.174>, fillcolor="#ffffff"] ;
47 -> 49 ;
50 [label=<Deperditions_baies_vitrées &le; -0.479<br/>squared_error = 0.0<br/>samples = 6<br/>value = -0.168>, fillcolor="#ffffff"] ;
14 -> 50 ;
51 [label=<Déperditions_murs &le; -0.357<br/>squared_error = 0.0<br/>samples = 2<br/>value = -0.174>, fillcolor="#ffffff"] ;
50 -> 51 ;
52 [label=<squared_error = 0.0<br/>samples = 1<br/>value = -0.175>, fillcolor="#ffffff"] ;
51 -> 52 ;
53 [label=<squared_error = -0.0<br/>samples = 1<br/>value = -0.173>, fillcolor="#ffffff"] ;
51 -> 53 ;
54 [label=<Déperditions_murs &le; -0.357<br/>squared_error = 0.0<br/>samples = 4<br/>value = -0.165>, fillcolor="#ffffff"] ;
50 -> 54 ;
55 [label=<Qualité_isolation_enveloppe_très bonne &le; 0.97<br/>squared_error = 0.0<br/>samples = 3<br/>value = -0.166>, fillcolor="#ffffff"] ;
54 -> 55 ;
56 [label=<squared_error = 0.0<br/>samples = 1<br/>value = -0.167>, fillcolor="#ffffff"] ;
55 -> 56 ;
57 [label=<Déperditions_portes &le; -0.364<br/>squared_error = 0.0<br/>samples = 2<br/>value = -0.166>, fillcolor="#ffffff"] ;
55 -> 57 ;
58 [label=<squared_error = 0.0<br/>samples = 1<br/>value = -0.166>, fillcolor="#ffffff"] ;
57 -> 58 ;
59 [label=<squared_error = 0.0<br/>samples = 1<br/>value = -0.166>, fillcolor="#ffffff"] ;
57 -> 59 ;
60 [label=<squared_error = 0.0<br/>samples = 1<br/>value = -0.163>, fillcolor="#ffffff"] ;
54 -> 60 ;
61 [label=<Déperditions_ponts_thermiques &le; -0.445<br/>squared_error = 0.0<br/>samples = 3<br/>value = -0.159>, fillcolor="#ffffff"] ;
13 -> 61 ;
62 [label=<Déperditions_portes &le; -0.373<br/>squared_error = 0.0<br/>samples = 2<br/>value = -0.157>, fillcolor="#ffffff"] ;
61 -> 62 ;
63 [label=<squared_error = 0.0<br/>samples = 1<br/>value = -0.156>, fillcolor="#ffffff"] ;
62 -> 63 ;
64 [label=<squared_error = 0.0<br/>samples = 1<br/>value = -0.158>, fillcolor="#ffffff"] ;
62 -> 64 ;
65 [label=<squared_error = -0.0<br/>samples = 1<br/>value = -0.162>, fillcolor="#ffffff"] ;
61 -> 65 ;
66 [label=<squared_error = 0.0<br/>samples = 1<br/>value = -0.142>, fillcolor="#ffffff"] ;
12 -> 66 ;
67 [label=<Deperditions_baies_vitrées &le; -0.478<br/>squared_error = 0.0<br/>samples = 48<br/>value = -0.162>, fillcolor="#ffffff"] ;
11 -> 67 ;
68 [label=<Surface_habitable_logement &le; -1.017<br/>squared_error = 0.0<br/>samples = 13<br/>value = -0.155>, fillcolor="#ffffff"] ;
67 -> 68 ;
69 [label=<squared_error = 0.0<br/>samples = 1<br/>value = -0.134>, fillcolor="#ffffff"] ;
68 -> 69 ;
70 [label=<Année_construction &le; 0.306<br/>squared_error = 0.0<br/>samples = 12<br/>value = -0.156>, fillcolor="#ffffff"] ;
68 -> 70 ;
71 [label=<squared_error = 0.0<br/>samples = 1<br/>value = -0.138>, fillcolor="#ffffff"] ;
70 -> 71 ;
72 [label=<Etiquette_DPE_C &le; 0.331<br/>squared_error = 0.0<br/>samples = 11<br/>value = -0.158>, fillcolor="#ffffff"] ;
70 -> 72 ;
73 [label=<squared_error = 0.0<br/>samples = 1<br/>value = -0.169>, fillcolor="#ffffff"] ;
72 -> 73 ;
74 [label=<Déperditions_renouvellement_air &le; -0.496<br/>squared_error = 0.0<br/>samples = 10<br/>value = -0.157>, fillcolor="#ffffff"] ;
72 -> 74 ;
75 [label=<Isolation_toiture_(0/1) &le; 0.974<br/>squared_error = 0.0<br/>samples = 8<br/>value = -0.155>, fillcolor="#ffffff"] ;
74 -> 75 ;
76 [label=<Qualité_isolation_enveloppe_insuffisante &le; -0.098<br/>squared_error = 0.0<br/>samples = 7<br/>value = -0.154>, fillcolor="#ffffff"] ;
75 -> 76 ;
77 [label=<Protection_solaire_exterieure_(0/1) &le; -0.082<br/>squared_error = 0.0<br/>samples = 6<br/>value = -0.155>, fillcolor="#ffffff"] ;
76 -> 77 ;
78 [label=<Année_construction &le; 1.15<br/>squared_error = 0.0<br/>samples = 2<br/>value = -0.153>, fillcolor="#ffffff"] ;
77 -> 78 ;
79 [label=<squared_error = 0.0<br/>samples = 1<br/>value = -0.152>, fillcolor="#ffffff"] ;
78 -> 79 ;
80 [label=<squared_error = -0.0<br/>samples = 1<br/>value = -0.153>, fillcolor="#ffffff"] ;
78 -> 80 ;
81 [label=<Année_construction &le; 1.603<br/>squared_error = 0.0<br/>samples = 4<br/>value = -0.156>, fillcolor="#ffffff"] ;
77 -> 81 ;
82 [label=<Période_construction_2013-2021 &le; 1.491<br/>squared_error = 0.0<br/>samples = 2<br/>value = -0.157>, fillcolor="#ffffff"] ;
81 -> 82 ;
83 [label=<squared_error = 0.0<br/>samples = 1<br/>value = -0.157>, fillcolor="#ffffff"] ;
82 -> 83 ;
84 [label=<squared_error = 0.0<br/>samples = 1<br/>value = -0.156>, fillcolor="#ffffff"] ;
82 -> 84 ;
85 [label=<Surface_habitable_logement &le; -0.857<br/>squared_error = 0.0<br/>samples = 2<br/>value = -0.155>, fillcolor="#ffffff"] ;
81 -> 85 ;
86 [label=<squared_error = 0.0<br/>samples = 1<br/>value = -0.155>, fillcolor="#ffffff"] ;
85 -> 86 ;
87 [label=<squared_error = 0.0<br/>samples = 1<br/>value = -0.155>, fillcolor="#ffffff"] ;
85 -> 87 ;
88 [label=<squared_error = -0.0<br/>samples = 1<br/>value = -0.149>, fillcolor="#ffffff"] ;
76 -> 88 ;
89 [label=<squared_error = 0.0<br/>samples = 1<br/>value = -0.162>, fillcolor="#ffffff"] ;
75 -> 89 ;
90 [label=<Isolation_toiture_(0/1) &le; 0.974<br/>squared_error = 0.0<br/>samples = 2<br/>value = -0.164>, fillcolor="#ffffff"] ;
74 -> 90 ;
91 [label=<squared_error = 0.0<br/>samples = 1<br/>value = -0.165>, fillcolor="#ffffff"] ;
90 -> 91 ;
92 [label=<squared_error = -0.0<br/>samples = 1<br/>value = -0.162>, fillcolor="#ffffff"] ;
90 -> 92 ;
93 [label=<Déperditions_murs &le; -0.358<br/>squared_error = 0.0<br/>samples = 35<br/>value = -0.164>, fillcolor="#ffffff"] ;
67 -> 93 ;
94 [label=<Qualité_isolation_enveloppe_moyenne &le; 0.991<br/>squared_error = 0.0<br/>samples = 10<br/>value = -0.159>, fillcolor="#ffffff"] ;
93 -> 94 ;
95 [label=<Inertie_lourde_(0/1) &le; -0.224<br/>squared_error = 0.0<br/>samples = 9<br/>value = -0.161>, fillcolor="#ffffff"] ;
94 -> 95 ;
96 [label=<Deperditions_baies_vitrées &le; -0.474<br/>squared_error = 0.0<br/>samples = 5<br/>value = -0.165>, fillcolor="#ffffff"] ;
95 -> 96 ;
97 [label=<Année_construction &le; 1.705<br/>squared_error = 0.0<br/>samples = 3<br/>value = -0.162>, fillcolor="#ffffff"] ;
96 -> 97 ;
98 [label=<squared_error = 0.0<br/>samples = 1<br/>value = -0.164>, fillcolor="#ffffff"] ;
97 -> 98 ;
99 [label=<Deperditions_planchers_hauts &le; -0.336<br/>squared_error = 0.0<br/>samples = 2<br/>value = -0.161>, fillcolor="#ffffff"] ;
97 -> 99 ;
100 [label=<squared_error = 0.0<br/>samples = 1<br/>value = -0.161>, fillcolor="#ffffff"] ;
99 -> 100 ;
101 [label=<squared_error = -0.0<br/>samples = 1<br/>value = -0.162>, fillcolor="#ffffff"] ;
99 -> 101 ;
102 [label=<Présence_brasseur_air_(0/1) &le; 3.231<br/>squared_error = 0.0<br/>samples = 2<br/>value = -0.169>, fillcolor="#ffffff"] ;
96 -> 102 ;
103 [label=<squared_error = 0.0<br/>samples = 1<br/>value = -0.169>, fillcolor="#ffffff"] ;
102 -> 103 ;
104 [label=<squared_error = -0.0<br/>samples = 1<br/>value = -0.168>, fillcolor="#ffffff"] ;
102 -> 104 ;
105 [label=<Qualité_isolation_menuiseries_très bonne &le; 0.752<br/>squared_error = 0.0<br/>samples = 4<br/>value = -0.156>, fillcolor="#ffffff"] ;
95 -> 105 ;
106 [label=<Période_construction_2013-2021 &le; 1.491<br/>squared_error = 0.0<br/>samples = 3<br/>value = -0.155>, fillcolor="#ffffff"] ;
105 -> 106 ;
107 [label=<N°_étage_appartement &le; 2.493<br/>squared_error = 0.0<br/>samples = 2<br/>value = -0.154>, fillcolor="#ffffff"] ;
106 -> 107 ;
108 [label=<squared_error = 0.0<br/>samples = 1<br/>value = -0.154>, fillcolor="#ffffff"] ;
107 -> 108 ;
109 [label=<squared_error = -0.0<br/>samples = 1<br/>value = -0.155>, fillcolor="#ffffff"] ;
107 -> 109 ;
110 [label=<squared_error = 0.0<br/>samples = 1<br/>value = -0.156>, fillcolor="#ffffff"] ;
106 -> 110 ;
111 [label=<squared_error = -0.0<br/>samples = 1<br/>value = -0.159>, fillcolor="#ffffff"] ;
105 -> 111 ;
112 [label=<squared_error = -0.0<br/>samples = 1<br/>value = -0.142>, fillcolor="#ffffff"] ;
94 -> 112 ;
113 [label=<Déperditions_ponts_thermiques &le; -0.445<br/>squared_error = 0.0<br/>samples = 25<br/>value = -0.167>, fillcolor="#ffffff"] ;
93 -> 113 ;
114 [label=<Hauteur_sous-plafond &le; 0.725<br/>squared_error = 0.0<br/>samples = 24<br/>value = -0.168>, fillcolor="#ffffff"] ;
113 -> 114 ;
115 [label=<Deperditions_baies_vitrées &le; -0.476<br/>squared_error = 0.0<br/>samples = 23<br/>value = -0.168>, fillcolor="#ffffff"] ;
114 -> 115 ;
116 [label=<Deperditions_baies_vitrées &le; -0.477<br/>squared_error = 0.0<br/>samples = 16<br/>value = -0.167>, fillcolor="#ffffff"] ;
115 -> 116 ;
117 [label=<Période_construction_après 2021 &le; 4.891<br/>squared_error = 0.0<br/>samples = 9<br/>value = -0.17>, fillcolor="#ffffff"] ;
116 -> 117 ;
118 [label=<Déperditions_murs &le; -0.356<br/>squared_error = 0.0<br/>samples = 8<br/>value = -0.171>, fillcolor="#ffffff"] ;
117 -> 118 ;
119 [label=<Année_construction &le; 1.58<br/>squared_error = 0.0<br/>samples = 5<br/>value = -0.172>, fillcolor="#ffffff"] ;
118 -> 119 ;
120 [label=<Qualité_isolation_enveloppe_très bonne &le; 0.97<br/>squared_error = 0.0<br/>samples = 4<br/>value = -0.172>, fillcolor="#ffffff"] ;
119 -> 120 ;
121 [label=<Qualité_isolation_enveloppe_moyenne &le; 0.991<br/>squared_error = 0.0<br/>samples = 2<br/>value = -0.171>, fillcolor="#ffffff"] ;
120 -> 121 ;
122 [label=<squared_error = 0.0<br/>samples = 1<br/>value = -0.171>, fillcolor="#ffffff"] ;
121 -> 122 ;
123 [label=<squared_error = -0.0<br/>samples = 1<br/>value = -0.171>, fillcolor="#ffffff"] ;
121 -> 123 ;
124 [label=<Logement_traversant_(0/1) &le; 0.289<br/>squared_error = 0.0<br/>samples = 2<br/>value = -0.172>, fillcolor="#ffffff"] ;
120 -> 124 ;
125 [label=<squared_error = 0.0<br/>samples = 1<br/>value = -0.173>, fillcolor="#ffffff"] ;
124 -> 125 ;
126 [label=<squared_error = -0.0<br/>samples = 1<br/>value = -0.172>, fillcolor="#ffffff"] ;
124 -> 126 ;
127 [label=<squared_error = -0.0<br/>samples = 1<br/>value = -0.175>, fillcolor="#ffffff"] ;
119 -> 127 ;
128 [label=<Déperditions_portes &le; -0.364<br/>squared_error = 0.0<br/>samples = 3<br/>value = -0.169>, fillcolor="#ffffff"] ;
118 -> 128 ;
129 [label=<squared_error = 0.0<br/>samples = 1<br/>value = -0.168>, fillcolor="#ffffff"] ;
128 -> 129 ;
130 [label=<Deperditions_enveloppe &le; -0.454<br/>squared_error = 0.0<br/>samples = 2<br/>value = -0.17>, fillcolor="#ffffff"] ;
128 -> 130 ;
131 [label=<squared_error = 0.0<br/>samples = 1<br/>value = -0.17>, fillcolor="#ffffff"] ;
130 -> 131 ;
132 [label=<squared_error = -0.0<br/>samples = 1<br/>value = -0.169>, fillcolor="#ffffff"] ;
130 -> 132 ;
133 [label=<squared_error = -0.0<br/>samples = 1<br/>value = -0.161>, fillcolor="#ffffff"] ;
117 -> 133 ;
134 [label=<Déperditions_ponts_thermiques &le; -0.447<br/>squared_error = 0.0<br/>samples = 7<br/>value = -0.162>, fillcolor="#ffffff"] ;
116 -> 134 ;
135 [label=<Deperditions_baies_vitrées &le; -0.476<br/>squared_error = 0.0<br/>samples = 4<br/>value = -0.16>, fillcolor="#ffffff"] ;
134 -> 135 ;
136 [label=<squared_error = 0.0<br/>samples = 1<br/>value = -0.163>, fillcolor="#ffffff"] ;
135 -> 136 ;
137 [label=<Deperditions_planchers_bas &le; -0.44<br/>squared_error = 0.0<br/>samples = 3<br/>value = -0.159>, fillcolor="#ffffff"] ;
135 -> 137 ;
138 [label=<Déperditions_ponts_thermiques &le; -0.449<br/>squared_error = 0.0<br/>samples = 2<br/>value = -0.16>, fillcolor="#ffffff"] ;
137 -> 138 ;
139 [label=<squared_error = 0.0<br/>samples = 1<br/>value = -0.16>, fillcolor="#ffffff"] ;
138 -> 139 ;
140 [label=<squared_error = 0.0<br/>samples = 1<br/>value = -0.16>, fillcolor="#ffffff"] ;
138 -> 140 ;
141 [label=<squared_error = 0.0<br/>samples = 1<br/>value = -0.158>, fillcolor="#ffffff"] ;
137 -> 141 ;
142 [label=<Déperditions_renouvellement_air &le; -0.496<br/>squared_error = 0.0<br/>samples = 3<br/>value = -0.165>, fillcolor="#ffffff"] ;
134 -> 142 ;
143 [label=<squared_error = 0.0<br/>samples = 1<br/>value = -0.163>, fillcolor="#ffffff"] ;
142 -> 143 ;
144 [label=<squared_error = 0.0<br/>samples = 2<br/>value = -0.166>, fillcolor="#ffffff"] ;
142 -> 144 ;
145 [label=<Surface_habitable_logement &le; -0.708<br/>squared_error = 0.0<br/>samples = 7<br/>value = -0.172>, fillcolor="#ffffff"] ;
115 -> 145 ;
146 [label=<Qualité_isolation_enveloppe_moyenne &le; 0.991<br/>squared_error = 0.0<br/>samples = 4<br/>value = -0.169>, fillcolor="#ffffff"] ;
145 -> 146 ;
147 [label=<Déperditions_murs &le; -0.356<br/>squared_error = 0.0<br/>samples = 2<br/>value = -0.166>, fillcolor="#ffffff"] ;
146 -> 147 ;
148 [label=<squared_error = 0.0<br/>samples = 1<br/>value = -0.167>, fillcolor="#ffffff"] ;
147 -> 148 ;
149 [label=<squared_error = -0.0<br/>samples = 1<br/>value = -0.165>, fillcolor="#ffffff"] ;
147 -> 149 ;
150 [label=<Logement_traversant_(0/1) &le; 0.289<br/>squared_error = 0.0<br/>samples = 2<br/>value = -0.172>, fillcolor="#ffffff"] ;
146 -> 150 ;
151 [label=<squared_error = 0.0<br/>samples = 1<br/>value = -0.173>, fillcolor="#ffffff"] ;
150 -> 151 ;
152 [label=<squared_error = -0.0<br/>samples = 1<br/>value = -0.172>, fillcolor="#ffffff"] ;
150 -> 152 ;
153 [label=<Logement_traversant_(0/1) &le; 0.289<br/>squared_error = 0.0<br/>samples = 3<br/>value = -0.176>, fillcolor="#ffffff"] ;
145 -> 153 ;
154 [label=<Surface_habitable_logement &le; -0.649<br/>squared_error = 0.0<br/>samples = 2<br/>value = -0.178>, fillcolor="#ffffff"] ;
153 -> 154 ;
155 [label=<squared_error = 0.0<br/>samples = 1<br/>value = -0.179>, fillcolor="#ffffff"] ;
154 -> 155 ;
156 [label=<squared_error = 0.0<br/>samples = 1<br/>value = -0.177>, fillcolor="#ffffff"] ;
154 -> 156 ;
157 [label=<squared_error = 0.0<br/>samples = 1<br/>value = -0.172>, fillcolor="#ffffff"] ;
153 -> 157 ;
158 [label=<squared_error = -0.0<br/>samples = 1<br/>value = -0.152>, fillcolor="#ffffff"] ;
114 -> 158 ;
159 [label=<squared_error = 0.0<br/>samples = 1<br/>value = -0.143>, fillcolor="#ffffff"] ;
113 -> 159 ;
160 [label=<Année_construction &le; 1.095<br/>squared_error = 0.0<br/>samples = 2<br/>value = -0.144>, fillcolor="#ffffff"] ;
10 -> 160 ;
161 [label=<squared_error = 0.0<br/>samples = 1<br/>value = -0.152>, fillcolor="#ffffff"] ;
160 -> 161 ;
162 [label=<squared_error = -0.0<br/>samples = 1<br/>value = -0.135>, fillcolor="#ffffff"] ;
160 -> 162 ;
163 [label=<squared_error = 0.0<br/>samples = 1<br/>value = -0.126>, fillcolor="#ffffff"] ;
9 -> 163 ;
164 [label=<Qualité_isolation_enveloppe_moyenne &le; 0.991<br/>squared_error = 0.0<br/>samples = 10<br/>value = -0.148>, fillcolor="#ffffff"] ;
8 -> 164 ;
165 [label=<Année_construction &le; 1.142<br/>squared_error = 0.0<br/>samples = 9<br/>value = -0.145>, fillcolor="#ffffff"] ;
164 -> 165 ;
166 [label=<Déperditions_ponts_thermiques &le; -0.448<br/>squared_error = 0.0<br/>samples = 2<br/>value = -0.162>, fillcolor="#ffffff"] ;
165 -> 166 ;
167 [label=<squared_error = 0.0<br/>samples = 1<br/>value = -0.157>, fillcolor="#ffffff"] ;
166 -> 167 ;
168 [label=<squared_error = 0.0<br/>samples = 1<br/>value = -0.168>, fillcolor="#ffffff"] ;
166 -> 168 ;
169 [label=<Logement_traversant_(0/1) &le; 0.289<br/>squared_error = 0.0<br/>samples = 7<br/>value = -0.14>, fillcolor="#ffffff"] ;
165 -> 169 ;
170 [label=<Isolation_toiture_(0/1) &le; 0.974<br/>squared_error = 0.0<br/>samples = 5<br/>value = -0.138>, fillcolor="#ffffff"] ;
169 -> 170 ;
171 [label=<Surface_habitable_logement &le; -0.489<br/>squared_error = 0.0<br/>samples = 4<br/>value = -0.139>, fillcolor="#ffffff"] ;
170 -> 171 ;
172 [label=<squared_error = 0.0<br/>samples = 1<br/>value = -0.134>, fillcolor="#ffffff"] ;
171 -> 172 ;
173 [label=<Déperditions_renouvellement_air &le; -0.495<br/>squared_error = 0.0<br/>samples = 3<br/>value = -0.141>, fillcolor="#ffffff"] ;
171 -> 173 ;
174 [label=<squared_error = 0.0<br/>samples = 1<br/>value = -0.145>, fillcolor="#ffffff"] ;
173 -> 174 ;
175 [label=<Type_énergie_n°1_Gaz naturel &le; 0.282<br/>squared_error = 0.0<br/>samples = 2<br/>value = -0.14>, fillcolor="#ffffff"] ;
173 -> 175 ;
176 [label=<squared_error = 0.0<br/>samples = 1<br/>value = -0.139>, fillcolor="#ffffff"] ;
175 -> 176 ;
177 [label=<squared_error = -0.0<br/>samples = 1<br/>value = -0.14>, fillcolor="#ffffff"] ;
175 -> 177 ;
178 [label=<squared_error = -0.0<br/>samples = 1<br/>value = -0.13>, fillcolor="#ffffff"] ;
170 -> 178 ;
179 [label=<Type_énergie_n°1_Gaz naturel &le; 0.282<br/>squared_error = 0.0<br/>samples = 2<br/>value = -0.147>, fillcolor="#ffffff"] ;
169 -> 179 ;
180 [label=<squared_error = 0.0<br/>samples = 1<br/>value = -0.147>, fillcolor="#ffffff"] ;
179 -> 180 ;
181 [label=<squared_error = -0.0<br/>samples = 1<br/>value = -0.148>, fillcolor="#ffffff"] ;
179 -> 181 ;
182 [label=<squared_error = -0.0<br/>samples = 1<br/>value = -0.172>, fillcolor="#ffffff"] ;
164 -> 182 ;
183 [label=<Surface_habitable_logement &le; -0.802<br/>squared_error = 0.0<br/>samples = 22<br/>value = -0.145>, fillcolor="#ffffff"] ;
7 -> 183 ;
184 [label=<Déperditions_renouvellement_air &le; -0.496<br/>squared_error = 0.0<br/>samples = 21<br/>value = -0.148>, fillcolor="#ffffff"] ;
183 -> 184 ;
185 [label=<Hauteur_sous-plafond &le; 0.995<br/>squared_error = 0.0<br/>samples = 20<br/>value = -0.149>, fillcolor="#ffffff"] ;
184 -> 185 ;
186 [label=<Déperditions_murs &le; -0.357<br/>squared_error = 0.0<br/>samples = 17<br/>value = -0.147>, fillcolor="#ffffff"] ;
185 -> 186 ;
187 [label=<Année_construction &le; 1.025<br/>squared_error = 0.0<br/>samples = 12<br/>value = -0.144>, fillcolor="#ffffff"] ;
186 -> 187 ;
188 [label=<Déperditions_ponts_thermiques &le; -0.447<br/>squared_error = 0.0<br/>samples = 8<br/>value = -0.146>, fillcolor="#ffffff"] ;
187 -> 188 ;
189 [label=<Déperditions_ponts_thermiques &le; -0.447<br/>squared_error = 0.0<br/>samples = 5<br/>value = -0.143>, fillcolor="#ffffff"] ;
188 -> 189 ;
190 [label=<Deperditions_enveloppe &le; -0.454<br/>squared_error = 0.0<br/>samples = 4<br/>value = -0.142>, fillcolor="#ffffff"] ;
189 -> 190 ;
191 [label=<squared_error = -0.0<br/>samples = 3<br/>value = -0.143>, fillcolor="#ffffff"] ;
190 -> 191 ;
192 [label=<squared_error = -0.0<br/>samples = 1<br/>value = -0.141>, fillcolor="#ffffff"] ;
190 -> 192 ;
193 [label=<squared_error = 0.0<br/>samples = 1<br/>value = -0.145>, fillcolor="#ffffff"] ;
189 -> 193 ;
194 [label=<Déperditions_murs &le; -0.357<br/>squared_error = 0.0<br/>samples = 3<br/>value = -0.152>, fillcolor="#ffffff"] ;
188 -> 194 ;
195 [label=<Qualité_isolation_murs_moyenne &le; 0.949<br/>squared_error = 0.0<br/>samples = 2<br/>value = -0.151>, fillcolor="#ffffff"] ;
194 -> 195 ;
196 [label=<squared_error = 0.0<br/>samples = 1<br/>value = -0.15>, fillcolor="#ffffff"] ;
195 -> 196 ;
197 [label=<squared_error = -0.0<br/>samples = 1<br/>value = -0.152>, fillcolor="#ffffff"] ;
195 -> 197 ;
198 [label=<squared_error = -0.0<br/>samples = 1<br/>value = -0.155>, fillcolor="#ffffff"] ;
194 -> 198 ;
199 [label=<Deperditions_baies_vitrées &le; -0.477<br/>squared_error = 0.0<br/>samples = 4<br/>value = -0.139>, fillcolor="#ffffff"] ;
187 -> 199 ;
200 [label=<Deperditions_enveloppe &le; -0.455<br/>squared_error = 0.0<br/>samples = 3<br/>value = -0.14>, fillcolor="#ffffff"] ;
199 -> 200 ;
201 [label=<Déperditions_renouvellement_air &le; -0.498<br/>squared_error = 0.0<br/>samples = 2<br/>value = -0.14>, fillcolor="#ffffff"] ;
200 -> 201 ;
202 [label=<squared_error = 0.0<br/>samples = 1<br/>value = -0.139>, fillcolor="#ffffff"] ;
201 -> 202 ;
203 [label=<squared_error = 0.0<br/>samples = 1<br/>value = -0.14>, fillcolor="#ffffff"] ;
201 -> 203 ;
204 [label=<squared_error = -0.0<br/>samples = 1<br/>value = -0.142>, fillcolor="#ffffff"] ;
200 -> 204 ;
205 [label=<squared_error = 0.0<br/>samples = 1<br/>value = -0.135>, fillcolor="#ffffff"] ;
199 -> 205 ;
206 [label=<Déperditions_renouvellement_air &le; -0.498<br/>squared_error = 0.0<br/>samples = 5<br/>value = -0.154>, fillcolor="#ffffff"] ;
186 -> 206 ;
207 [label=<Année_construction &le; 1.088<br/>squared_error = 0.0<br/>samples = 3<br/>value = -0.151>, fillcolor="#ffffff"] ;
206 -> 207 ;
208 [label=<Déperditions_murs &le; -0.355<br/>squared_error = 0.0<br/>samples = 2<br/>value = -0.15>, fillcolor="#ffffff"] ;
207 -> 208 ;
209 [label=<squared_error = 0.0<br/>samples = 1<br/>value = -0.149>, fillcolor="#ffffff"] ;
208 -> 209 ;
210 [label=<squared_error = 0.0<br/>samples = 1<br/>value = -0.15>, fillcolor="#ffffff"] ;
208 -> 210 ;
211 [label=<squared_error = -0.0<br/>samples = 1<br/>value = -0.154>, fillcolor="#ffffff"] ;
207 -> 211 ;
212 [label=<Hauteur_sous-plafond &le; -0.623<br/>squared_error = 0.0<br/>samples = 2<br/>value = -0.159>, fillcolor="#ffffff"] ;
206 -> 212 ;
213 [label=<squared_error = 0.0<br/>samples = 1<br/>value = -0.161>, fillcolor="#ffffff"] ;
212 -> 213 ;
214 [label=<squared_error = -0.0<br/>samples = 1<br/>value = -0.158>, fillcolor="#ffffff"] ;
212 -> 214 ;
215 [label=<Qualité_isolation_plancher_bas_très bonne &le; -0.169<br/>squared_error = 0.0<br/>samples = 3<br/>value = -0.163>, fillcolor="#ffffff"] ;
185 -> 215 ;
216 [label=<Déperditions_ponts_thermiques &le; -0.448<br/>squared_error = 0.0<br/>samples = 2<br/>value = -0.161>, fillcolor="#ffffff"] ;
215 -> 216 ;
217 [label=<squared_error = 0.0<br/>samples = 1<br/>value = -0.161>, fillcolor="#ffffff"] ;
216 -> 217 ;
218 [label=<squared_error = 0.0<br/>samples = 1<br/>value = -0.161>, fillcolor="#ffffff"] ;
216 -> 218 ;
219 [label=<squared_error = -0.0<br/>samples = 1<br/>value = -0.167>, fillcolor="#ffffff"] ;
215 -> 219 ;
220 [label=<squared_error = 0.0<br/>samples = 1<br/>value = -0.116>, fillcolor="#ffffff"] ;
184 -> 220 ;
221 [label=<squared_error = 0.0<br/>samples = 1<br/>value = -0.094>, fillcolor="#ffffff"] ;
183 -> 221 ;
222 [label=<Période_construction_1978-1982 &le; 3.02<br/>squared_error = 0.0<br/>samples = 190<br/>value = -0.147>, fillcolor="#ffffff"] ;
6 -> 222 ;
223 [label=<Deperditions_planchers_bas &le; -0.407<br/>squared_error = 0.0<br/>samples = 189<br/>value = -0.148>, fillcolor="#ffffff"] ;
222 -> 223 ;
224 [label=<Période_construction_1983-1988 &le; 2.016<br/>squared_error = 0.0<br/>samples = 187<br/>value = -0.148>, fillcolor="#ffffff"] ;
223 -> 224 ;
225 [label=<Déperditions_renouvellement_air &le; -0.493<br/>squared_error = 0.0<br/>samples = 185<br/>value = -0.148>, fillcolor="#ffffff"] ;
224 -> 225 ;
226 [label=<Deperditions_planchers_bas &le; -0.432<br/>squared_error = 0.0<br/>samples = 164<br/>value = -0.15>, fillcolor="#ffffff"] ;
225 -> 226 ;
227 [label=<Deperditions_enveloppe &le; -0.453<br/>squared_error = 0.0<br/>samples = 146<br/>value = -0.151>, fillcolor="#ffffff"] ;
226 -> 227 ;
228 [label=<Déperditions_murs &le; -0.357<br/>squared_error = 0.0<br/>samples = 90<br/>value = -0.154>, fillcolor="#ffffff"] ;
227 -> 228 ;
229 [label=<Deperditions_enveloppe &le; -0.453<br/>squared_error = 0.0<br/>samples = 55<br/>value = -0.151>, fillcolor="#ffffff"] ;
228 -> 229 ;
230 [label=<Année_construction &le; 1.728<br/>squared_error = 0.0<br/>samples = 48<br/>value = -0.149>, fillcolor="#ffffff"] ;
229 -> 230 ;
231 [label=<Deperditions_baies_vitrées &le; -0.473<br/>squared_error = 0.0<br/>samples = 34<br/>value = -0.147>, fillcolor="#ffffff"] ;
230 -> 231 ;
232 [label=<N°_étage_appartement &le; 0.862<br/>squared_error = 0.0<br/>samples = 31<br/>value = -0.149>, fillcolor="#ffffff"] ;
231 -> 232 ;
233 [label=<Surface_habitable_logement &le; -0.209<br/>squared_error = 0.0<br/>samples = 29<br/>value = -0.15>, fillcolor="#ffffff"] ;
232 -> 233 ;
234 [label=<Déperditions_renouvellement_air &le; -0.497<br/>squared_error = 0.0<br/>samples = 28<br/>value = -0.15>, fillcolor="#ffffff"] ;
233 -> 234 ;
235 [label=<Déperditions_renouvellement_air &le; -0.498<br/>squared_error = 0.0<br/>samples = 8<br/>value = -0.144>, fillcolor="#ffffff"] ;
234 -> 235 ;
236 [label=<squared_error = 0.0<br/>samples = 1<br/>value = -0.165>, fillcolor="#ffffff"] ;
235 -> 236 ;
237 [label=<Déperditions_murs &le; -0.358<br/>squared_error = 0.0<br/>samples = 7<br/>value = -0.141>, fillcolor="#ffffff"] ;
235 -> 237 ;
238 [label=<squared_error = 0.0<br/>samples = 1<br/>value = -0.149>, fillcolor="#ffffff"] ;
237 -> 238 ;
239 [label=<Période_construction_2006-2012 &le; 1.303<br/>squared_error = 0.0<br/>samples = 6<br/>value = -0.14>, fillcolor="#ffffff"] ;
237 -> 239 ;
240 [label=<Qualité_isolation_enveloppe_très bonne &le; 0.97<br/>squared_error = 0.0<br/>samples = 3<br/>value = -0.142>, fillcolor="#ffffff"] ;
239 -> 240 ;
241 [label=<Déperditions_murs &le; -0.357<br/>squared_error = 0.0<br/>samples = 2<br/>value = -0.142>, fillcolor="#ffffff"] ;
240 -> 241 ;
242 [label=<squared_error = 0.0<br/>samples = 1<br/>value = -0.142>, fillcolor="#ffffff"] ;
241 -> 242 ;
243 [label=<squared_error = 0.0<br/>samples = 1<br/>value = -0.143>, fillcolor="#ffffff"] ;
241 -> 243 ;
244 [label=<squared_error = 0.0<br/>samples = 1<br/>value = -0.142>, fillcolor="#ffffff"] ;
240 -> 244 ;
245 [label=<Type_énergie_n°1_Gaz naturel &le; 0.282<br/>squared_error = 0.0<br/>samples = 3<br/>value = -0.138>, fillcolor="#ffffff"] ;
239 -> 245 ;
246 [label=<Deperditions_enveloppe &le; -0.453<br/>squared_error = 0.0<br/>samples = 2<br/>value = -0.138>, fillcolor="#ffffff"] ;
245 -> 246 ;
247 [label=<squared_error = 0.0<br/>samples = 1<br/>value = -0.138>, fillcolor="#ffffff"] ;
246 -> 247 ;
248 [label=<squared_error = -0.0<br/>samples = 1<br/>value = -0.138>, fillcolor="#ffffff"] ;
246 -> 248 ;
249 [label=<squared_error = -0.0<br/>samples = 1<br/>value = -0.139>, fillcolor="#ffffff"] ;
245 -> 249 ;
250 [label=<Surface_habitable_logement &le; -0.347<br/>squared_error = 0.0<br/>samples = 20<br/>value = -0.153>, fillcolor="#ffffff"] ;
234 -> 250 ;
251 [label=<Année_construction &le; 1.634<br/>squared_error = 0.0<br/>samples = 19<br/>value = -0.152>, fillcolor="#ffffff"] ;
250 -> 251 ;
252 [label=<Déperditions_ponts_thermiques &le; -0.445<br/>squared_error = 0.0<br/>samples = 18<br/>value = -0.151>, fillcolor="#ffffff"] ;
251 -> 252 ;
253 [label=<Déperditions_ponts_thermiques &le; -0.447<br/>squared_error = 0.0<br/>samples = 14<br/>value = -0.153>, fillcolor="#ffffff"] ;
252 -> 253 ;
254 [label=<Deperditions_enveloppe &le; -0.453<br/>squared_error = 0.0<br/>samples = 7<br/>value = -0.15>, fillcolor="#ffffff"] ;
253 -> 254 ;
255 [label=<Qualité_isolation_menuiseries_moyenne &le; 0.09<br/>squared_error = 0.0<br/>samples = 2<br/>value = -0.139>, fillcolor="#ffffff"] ;
254 -> 255 ;
256 [label=<squared_error = 0.0<br/>samples = 1<br/>value = -0.138>, fillcolor="#ffffff"] ;
255 -> 256 ;
257 [label=<squared_error = 0.0<br/>samples = 1<br/>value = -0.139>, fillcolor="#ffffff"] ;
255 -> 257 ;
258 [label=<Qualité_isolation_enveloppe_très bonne &le; 0.97<br/>squared_error = 0.0<br/>samples = 5<br/>value = -0.154>, fillcolor="#ffffff"] ;
254 -> 258 ;
259 [label=<squared_error = 0.0<br/>samples = 1<br/>value = -0.161>, fillcolor="#ffffff"] ;
258 -> 259 ;
260 [label=<Deperditions_baies_vitrées &le; -0.477<br/>squared_error = 0.0<br/>samples = 4<br/>value = -0.152>, fillcolor="#ffffff"] ;
258 -> 260 ;
261 [label=<squared_error = 0.0<br/>samples = 1<br/>value = -0.149>, fillcolor="#ffffff"] ;
260 -> 261 ;
262 [label=<Deperditions_baies_vitrées &le; -0.476<br/>squared_error = 0.0<br/>samples = 3<br/>value = -0.153>, fillcolor="#ffffff"] ;
260 -> 262 ;
263 [label=<squared_error = 0.0<br/>samples = 1<br/>value = -0.154>, fillcolor="#ffffff"] ;
262 -> 263 ;
264 [label=<Déperditions_renouvellement_air &le; -0.494<br/>squared_error = 0.0<br/>samples = 2<br/>value = -0.153>, fillcolor="#ffffff"] ;
262 -> 264 ;
265 [label=<squared_error = 0.0<br/>samples = 1<br/>value = -0.153>, fillcolor="#ffffff"] ;
264 -> 265 ;
266 [label=<squared_error = 0.0<br/>samples = 1<br/>value = -0.152>, fillcolor="#ffffff"] ;
264 -> 266 ;
267 [label=<Inertie_lourde_(0/1) &le; -0.224<br/>squared_error = 0.0<br/>samples = 7<br/>value = -0.156>, fillcolor="#ffffff"] ;
253 -> 267 ;
268 [label=<Déperditions_murs &le; -0.358<br/>squared_error = 0.0<br/>samples = 5<br/>value = -0.155>, fillcolor="#ffffff"] ;
267 -> 268 ;
269 [label=<squared_error = 0.0<br/>samples = 1<br/>value = -0.153>, fillcolor="#ffffff"] ;
268 -> 269 ;
270 [label=<Qualité_isolation_murs_insuffisante &le; -0.157<br/>squared_error = 0.0<br/>samples = 4<br/>value = -0.156>, fillcolor="#ffffff"] ;
268 -> 270 ;
271 [label=<Hauteur_sous-plafond &le; -0.623<br/>squared_error = 0.0<br/>samples = 3<br/>value = -0.156>, fillcolor="#ffffff"] ;
270 -> 271 ;
272 [label=<squared_error = 0.0<br/>samples = 1<br/>value = -0.156>, fillcolor="#ffffff"] ;
271 -> 272 ;
273 [label=<Déperditions_ponts_thermiques &le; -0.446<br/>squared_error = 0.0<br/>samples = 2<br/>value = -0.156>, fillcolor="#ffffff"] ;
271 -> 273 ;
274 [label=<squared_error = 0.0<br/>samples = 1<br/>value = -0.156>, fillcolor="#ffffff"] ;
273 -> 274 ;
275 [label=<squared_error = 0.0<br/>samples = 1<br/>value = -0.156>, fillcolor="#ffffff"] ;
273 -> 275 ;
276 [label=<squared_error = -0.0<br/>samples = 1<br/>value = -0.157>, fillcolor="#ffffff"] ;
270 -> 276 ;
277 [label=<Qualité_isolation_murs_moyenne &le; 0.949<br/>squared_error = 0.0<br/>samples = 2<br/>value = -0.159>, fillcolor="#ffffff"] ;
267 -> 277 ;
278 [label=<squared_error = 0.0<br/>samples = 1<br/>value = -0.159>, fillcolor="#ffffff"] ;
277 -> 278 ;
279 [label=<squared_error = 0.0<br/>samples = 1<br/>value = -0.159>, fillcolor="#ffffff"] ;
277 -> 279 ;
280 [label=<Deperditions_baies_vitrées &le; -0.476<br/>squared_error = 0.0<br/>samples = 4<br/>value = -0.143>, fillcolor="#ffffff"] ;
252 -> 280 ;
281 [label=<Année_construction &le; 0.549<br/>squared_error = 0.0<br/>samples = 2<br/>value = -0.141>, fillcolor="#ffffff"] ;
280 -> 281 ;
282 [label=<squared_error = 0.0<br/>samples = 1<br/>value = -0.141>, fillcolor="#ffffff"] ;
281 -> 282 ;
283 [label=<squared_error = 0.0<br/>samples = 1<br/>value = -0.141>, fillcolor="#ffffff"] ;
281 -> 283 ;
284 [label=<Surface_habitable_logement &le; -0.581<br/>squared_error = 0.0<br/>samples = 2<br/>value = -0.146>, fillcolor="#ffffff"] ;
280 -> 284 ;
285 [label=<squared_error = 0.0<br/>samples = 1<br/>value = -0.146>, fillcolor="#ffffff"] ;
284 -> 285 ;
286 [label=<squared_error = -0.0<br/>samples = 1<br/>value = -0.145>, fillcolor="#ffffff"] ;
284 -> 286 ;
287 [label=<squared_error = 0.0<br/>samples = 1<br/>value = -0.168>, fillcolor="#ffffff"] ;
251 -> 287 ;
288 [label=<squared_error = -0.0<br/>samples = 1<br/>value = -0.168>, fillcolor="#ffffff"] ;
250 -> 288 ;
289 [label=<squared_error = 0.0<br/>samples = 1<br/>value = -0.131>, fillcolor="#ffffff"] ;
233 -> 289 ;
290 [label=<Surface_habitable_logement &le; -0.602<br/>squared_error = 0.0<br/>samples = 2<br/>value = -0.133>, fillcolor="#ffffff"] ;
232 -> 290 ;
291 [label=<squared_error = 0.0<br/>samples = 1<br/>value = -0.135>, fillcolor="#ffffff"] ;
290 -> 291 ;
292 [label=<squared_error = 0.0<br/>samples = 1<br/>value = -0.131>, fillcolor="#ffffff"] ;
290 -> 292 ;
293 [label=<Déperditions_renouvellement_air &le; -0.496<br/>squared_error = 0.0<br/>samples = 3<br/>value = -0.136>, fillcolor="#ffffff"] ;
231 -> 293 ;
294 [label=<Année_construction &le; 1.119<br/>squared_error = 0.0<br/>samples = 2<br/>value = -0.14>, fillcolor="#ffffff"] ;
293 -> 294 ;
295 [label=<squared_error = 0.0<br/>samples = 1<br/>value = -0.141>, fillcolor="#ffffff"] ;
294 -> 295 ;
296 [label=<squared_error = -0.0<br/>samples = 1<br/>value = -0.139>, fillcolor="#ffffff"] ;
294 -> 296 ;
297 [label=<squared_error = 0.0<br/>samples = 1<br/>value = -0.126>, fillcolor="#ffffff"] ;
293 -> 297 ;
298 [label=<Type_énergie_n°1_Réseau de Chauffage urbain &le; 0.735<br/>squared_error = 0.0<br/>samples = 14<br/>value = -0.154>, fillcolor="#ffffff"] ;
230 -> 298 ;
299 [label=<Logement_traversant_(0/1) &le; 0.289<br/>squared_error = 0.0<br/>samples = 13<br/>value = -0.156>, fillcolor="#ffffff"] ;
298 -> 299 ;
300 [label=<Déperditions_ponts_thermiques &le; -0.447<br/>squared_error = 0.0<br/>samples = 10<br/>value = -0.153>, fillcolor="#ffffff"] ;
299 -> 300 ;
301 [label=<Deperditions_enveloppe &le; -0.453<br/>squared_error = 0.0<br/>samples = 6<br/>value = -0.157>, fillcolor="#ffffff"] ;
300 -> 301 ;
302 [label=<Type_énergie_n°1_Fioul domestique &le; 5.401<br/>squared_error = 0.0<br/>samples = 4<br/>value = -0.161>, fillcolor="#ffffff"] ;
301 -> 302 ;
303 [label=<Déperditions_renouvellement_air &le; -0.496<br/>squared_error = 0.0<br/>samples = 2<br/>value = -0.165>, fillcolor="#ffffff"] ;
302 -> 303 ;
304 [label=<squared_error = 0.0<br/>samples = 1<br/>value = -0.164>, fillcolor="#ffffff"] ;
303 -> 304 ;
305 [label=<squared_error = -0.0<br/>samples = 1<br/>value = -0.166>, fillcolor="#ffffff"] ;
303 -> 305 ;
306 [label=<Qualité_isolation_enveloppe_insuffisante &le; -0.098<br/>squared_error = 0.0<br/>samples = 2<br/>value = -0.157>, fillcolor="#ffffff"] ;
302 -> 306 ;
307 [label=<squared_error = 0.0<br/>samples = 1<br/>value = -0.157>, fillcolor="#ffffff"] ;
306 -> 307 ;
308 [label=<squared_error = 0.0<br/>samples = 1<br/>value = -0.158>, fillcolor="#ffffff"] ;
306 -> 308 ;
309 [label=<Surface_habitable_logement &le; -0.406<br/>squared_error = 0.0<br/>samples = 2<br/>value = -0.149>, fillcolor="#ffffff"] ;
301 -> 309 ;
310 [label=<squared_error = 0.0<br/>samples = 1<br/>value = -0.146>, fillcolor="#ffffff"] ;
309 -> 310 ;
311 [label=<squared_error = -0.0<br/>samples = 1<br/>value = -0.151>, fillcolor="#ffffff"] ;
309 -> 311 ;
312 [label=<Présence_brasseur_air_(0/1) &le; 3.231<br/>squared_error = 0.0<br/>samples = 4<br/>value = -0.146>, fillcolor="#ffffff"] ;
300 -> 312 ;
313 [label=<Qualité_isolation_enveloppe_insuffisante &le; -0.098<br/>squared_error = 0.0<br/>samples = 3<br/>value = -0.149>, fillcolor="#ffffff"] ;
312 -> 313 ;
314 [label=<squared_error = 0.0<br/>samples = 1<br/>value = -0.15>, fillcolor="#ffffff"] ;
313 -> 314 ;
315 [label=<Déperditions_renouvellement_air &le; -0.497<br/>squared_error = 0.0<br/>samples = 2<br/>value = -0.148>, fillcolor="#ffffff"] ;
313 -> 315 ;
316 [label=<squared_error = 0.0<br/>samples = 1<br/>value = -0.148>, fillcolor="#ffffff"] ;
315 -> 316 ;
317 [label=<squared_error = 0.0<br/>samples = 1<br/>value = -0.149>, fillcolor="#ffffff"] ;
315 -> 317 ;
318 [label=<squared_error = 0.0<br/>samples = 1<br/>value = -0.138>, fillcolor="#ffffff"] ;
312 -> 318 ;
319 [label=<Qualité_isolation_enveloppe_moyenne &le; 0.991<br/>squared_error = 0.0<br/>samples = 3<br/>value = -0.165>, fillcolor="#ffffff"] ;
299 -> 319 ;
320 [label=<Surface_habitable_logement &le; -0.387<br/>squared_error = 0.0<br/>samples = 2<br/>value = -0.165>, fillcolor="#ffffff"] ;
319 -> 320 ;
321 [label=<squared_error = 0.0<br/>samples = 1<br/>value = -0.165>, fillcolor="#ffffff"] ;
320 -> 321 ;
322 [label=<squared_error = 0.0<br/>samples = 1<br/>value = -0.164>, fillcolor="#ffffff"] ;
320 -> 322 ;
323 [label=<squared_error = 0.0<br/>samples = 1<br/>value = -0.167>, fillcolor="#ffffff"] ;
319 -> 323 ;
324 [label=<squared_error = -0.0<br/>samples = 1<br/>value = -0.133>, fillcolor="#ffffff"] ;
298 -> 324 ;
325 [label=<Deperditions_baies_vitrées &le; -0.477<br/>squared_error = 0.0<br/>samples = 7<br/>value = -0.159>, fillcolor="#ffffff"] ;
229 -> 325 ;
326 [label=<squared_error = 0.0<br/>samples = 2<br/>value = -0.172>, fillcolor="#ffffff"] ;
325 -> 326 ;
327 [label=<Déperditions_portes &le; -0.373<br/>squared_error = 0.0<br/>samples = 5<br/>value = -0.154>, fillcolor="#ffffff"] ;
325 -> 327 ;
328 [label=<Déperditions_ponts_thermiques &le; -0.447<br/>squared_error = 0.0<br/>samples = 4<br/>value = -0.157>, fillcolor="#ffffff"] ;
327 -> 328 ;
329 [label=<squared_error = 0.0<br/>samples = 1<br/>value = -0.163>, fillcolor="#ffffff"] ;
328 -> 329 ;
330 [label=<Déperditions_murs &le; -0.357<br/>squared_error = 0.0<br/>samples = 3<br/>value = -0.155>, fillcolor="#ffffff"] ;
328 -> 330 ;
331 [label=<Indicateur_confort_été_insuffisant &le; 1.169<br/>squared_error = 0.0<br/>samples = 2<br/>value = -0.154>, fillcolor="#ffffff"] ;
330 -> 331 ;
332 [label=<squared_error = 0.0<br/>samples = 1<br/>value = -0.154>, fillcolor="#ffffff"] ;
331 -> 332 ;
333 [label=<squared_error = -0.0<br/>samples = 1<br/>value = -0.154>, fillcolor="#ffffff"] ;
331 -> 333 ;
334 [label=<squared_error = 0.0<br/>samples = 1<br/>value = -0.156>, fillcolor="#ffffff"] ;
330 -> 334 ;
335 [label=<squared_error = 0.0<br/>samples = 1<br/>value = -0.143>, fillcolor="#ffffff"] ;
327 -> 335 ;
336 [label=<Deperditions_enveloppe &le; -0.453<br/>squared_error = 0.0<br/>samples = 35<br/>value = -0.159>, fillcolor="#ffffff"] ;
228 -> 336 ;
337 [label=<Deperditions_enveloppe &le; -0.453<br/>squared_error = 0.0<br/>samples = 13<br/>value = -0.153>, fillcolor="#ffffff"] ;
336 -> 337 ;
338 [label=<Qualité_isolation_enveloppe_très bonne &le; 0.97<br/>squared_error = 0.0<br/>samples = 11<br/>value = -0.157>, fillcolor="#ffffff"] ;
337 -> 338 ;
339 [label=<Deperditions_baies_vitrées &le; -0.476<br/>squared_error = 0.0<br/>samples = 5<br/>value = -0.166>, fillcolor="#ffffff"] ;
338 -> 339 ;
340 [label=<Indicateur_confort_été_moyen &le; -0.566<br/>squared_error = 0.0<br/>samples = 3<br/>value = -0.164>, fillcolor="#ffffff"] ;
339 -> 340 ;
341 [label=<squared_error = 0.0<br/>samples = 1<br/>value = -0.163>, fillcolor="#ffffff"] ;
340 -> 341 ;
342 [label=<Deperditions_baies_vitrées &le; -0.479<br/>squared_error = 0.0<br/>samples = 2<br/>value = -0.165>, fillcolor="#ffffff"] ;
340 -> 342 ;
343 [label=<squared_error = 0.0<br/>samples = 1<br/>value = -0.165>, fillcolor="#ffffff"] ;
342 -> 343 ;
344 [label=<squared_error = 0.0<br/>samples = 1<br/>value = -0.165>, fillcolor="#ffffff"] ;
342 -> 344 ;
345 [label=<Surface_habitable_logement &le; -0.732<br/>squared_error = 0.0<br/>samples = 2<br/>value = -0.169>, fillcolor="#ffffff"] ;
339 -> 345 ;
346 [label=<squared_error = 0.0<br/>samples = 1<br/>value = -0.169>, fillcolor="#ffffff"] ;
345 -> 346 ;
347 [label=<squared_error = 0.0<br/>samples = 1<br/>value = -0.17>, fillcolor="#ffffff"] ;
345 -> 347 ;
348 [label=<Inertie_lourde_(0/1) &le; -0.224<br/>squared_error = 0.0<br/>samples = 6<br/>value = -0.149>, fillcolor="#ffffff"] ;
338 -> 348 ;
349 [label=<Protection_solaire_exterieure_(0/1) &le; -0.082<br/>squared_error = 0.0<br/>samples = 3<br/>value = -0.14>, fillcolor="#ffffff"] ;
348 -> 349 ;
350 [label=<squared_error = 0.0<br/>samples = 1<br/>value = -0.157>, fillcolor="#ffffff"] ;
349 -> 350 ;
351 [label=<Période_construction_avant 1948 &le; 1.033<br/>squared_error = 0.0<br/>samples = 2<br/>value = -0.131>, fillcolor="#ffffff"] ;
349 -> 351 ;
352 [label=<squared_error = 0.0<br/>samples = 1<br/>value = -0.13>, fillcolor="#ffffff"] ;
351 -> 352 ;
353 [label=<squared_error = -0.0<br/>samples = 1<br/>value = -0.132>, fillcolor="#ffffff"] ;
351 -> 353 ;
354 [label=<Déperditions_murs &le; -0.357<br/>squared_error = 0.0<br/>samples = 3<br/>value = -0.158>, fillcolor="#ffffff"] ;
348 -> 354 ;
355 [label=<squared_error = 0.0<br/>samples = 1<br/>value = -0.166>, fillcolor="#ffffff"] ;
354 -> 355 ;
356 [label=<Période_construction_2006-2012 &le; 1.303<br/>squared_error = 0.0<br/>samples = 2<br/>value = -0.155>, fillcolor="#ffffff"] ;
354 -> 356 ;
357 [label=<squared_error = 0.0<br/>samples = 1<br/>value = -0.158>, fillcolor="#ffffff"] ;
356 -> 357 ;
358 [label=<squared_error = 0.0<br/>samples = 1<br/>value = -0.152>, fillcolor="#ffffff"] ;
356 -> 358 ;
359 [label=<Qualité_isolation_murs_insuffisante &le; -0.157<br/>squared_error = 0.0<br/>samples = 2<br/>value = -0.132>, fillcolor="#ffffff"] ;
337 -> 359 ;
360 [label=<squared_error = 0.0<br/>samples = 1<br/>value = -0.133>, fillcolor="#ffffff"] ;
359 -> 360 ;
361 [label=<squared_error = 0.0<br/>samples = 1<br/>value = -0.131>, fillcolor="#ffffff"] ;
359 -> 361 ;
362 [label=<Inertie_lourde_(0/1) &le; -0.578<br/>squared_error = 0.0<br/>samples = 22<br/>value = -0.163>, fillcolor="#ffffff"] ;
336 -> 362 ;
363 [label=<Période_construction_2013-2021 &le; 1.491<br/>squared_error = 0.0<br/>samples = 10<br/>value = -0.158>, fillcolor="#ffffff"] ;
362 -> 363 ;
364 [label=<Déperditions_portes &le; -0.373<br/>squared_error = 0.0<br/>samples = 5<br/>value = -0.154>, fillcolor="#ffffff"] ;
363 -> 364 ;
365 [label=<Période_construction_1989-2000 &le; 0.929<br/>squared_error = 0.0<br/>samples = 3<br/>value = -0.158>, fillcolor="#ffffff"] ;
364 -> 365 ;
366 [label=<Etiquette_DPE_D &le; 0.336<br/>squared_error = 0.0<br/>samples = 2<br/>value = -0.159>, fillcolor="#ffffff"] ;
365 -> 366 ;
367 [label=<squared_error = 0.0<br/>samples = 1<br/>value = -0.159>, fillcolor="#ffffff"] ;
366 -> 367 ;
368 [label=<squared_error = 0.0<br/>samples = 1<br/>value = -0.159>, fillcolor="#ffffff"] ;
366 -> 368 ;
369 [label=<squared_error = -0.0<br/>samples = 1<br/>value = -0.158>, fillcolor="#ffffff"] ;
365 -> 369 ;
370 [label=<Période_construction_2006-2012 &le; 1.303<br/>squared_error = 0.0<br/>samples = 2<br/>value = -0.147>, fillcolor="#ffffff"] ;
364 -> 370 ;
371 [label=<squared_error = 0.0<br/>samples = 1<br/>value = -0.145>, fillcolor="#ffffff"] ;
370 -> 371 ;
372 [label=<squared_error = 0.0<br/>samples = 1<br/>value = -0.148>, fillcolor="#ffffff"] ;
370 -> 372 ;
373 [label=<Deperditions_baies_vitrées &le; -0.476<br/>squared_error = 0.0<br/>samples = 5<br/>value = -0.163>, fillcolor="#ffffff"] ;
363 -> 373 ;
374 [label=<Déperditions_murs &le; -0.356<br/>squared_error = 0.0<br/>samples = 3<br/>value = -0.161>, fillcolor="#ffffff"] ;
373 -> 374 ;
375 [label=<squared_error = 0.0<br/>samples = 1<br/>value = -0.159>, fillcolor="#ffffff"] ;
374 -> 375 ;
376 [label=<Qualité_isolation_murs_insuffisante &le; -0.157<br/>squared_error = 0.0<br/>samples = 2<br/>value = -0.162>, fillcolor="#ffffff"] ;
374 -> 376 ;
377 [label=<squared_error = 0.0<br/>samples = 1<br/>value = -0.161>, fillcolor="#ffffff"] ;
376 -> 377 ;
378 [label=<squared_error = 0.0<br/>samples = 1<br/>value = -0.163>, fillcolor="#ffffff"] ;
376 -> 378 ;
379 [label=<Déperditions_renouvellement_air &le; -0.495<br/>squared_error = 0.0<br/>samples = 2<br/>value = -0.166>, fillcolor="#ffffff"] ;
373 -> 379 ;
380 [label=<squared_error = 0.0<br/>samples = 1<br/>value = -0.166>, fillcolor="#ffffff"] ;
379 -> 380 ;
381 [label=<squared_error = -0.0<br/>samples = 1<br/>value = -0.165>, fillcolor="#ffffff"] ;
379 -> 381 ;
382 [label=<Protection_solaire_exterieure_(0/1) &le; -0.082<br/>squared_error = 0.0<br/>samples = 12<br/>value = -0.166>, fillcolor="#ffffff"] ;
362 -> 382 ;
383 [label=<Déperditions_portes &le; -0.361<br/>squared_error = 0.0<br/>samples = 3<br/>value = -0.159>, fillcolor="#ffffff"] ;
382 -> 383 ;
384 [label=<squared_error = 0.0<br/>samples = 1<br/>value = -0.163>, fillcolor="#ffffff"] ;
383 -> 384 ;
385 [label=<Période_construction_2013-2021 &le; 1.491<br/>squared_error = 0.0<br/>samples = 2<br/>value = -0.157>, fillcolor="#ffffff"] ;
383 -> 385 ;
386 [label=<squared_error = 0.0<br/>samples = 1<br/>value = -0.157>, fillcolor="#ffffff"] ;
385 -> 386 ;
387 [label=<squared_error = 0.0<br/>samples = 1<br/>value = -0.158>, fillcolor="#ffffff"] ;
385 -> 387 ;
388 [label=<Déperditions_renouvellement_air &le; -0.497<br/>squared_error = 0.0<br/>samples = 9<br/>value = -0.168>, fillcolor="#ffffff"] ;
382 -> 388 ;
389 [label=<Période_construction_2013-2021 &le; 1.491<br/>squared_error = 0.0<br/>samples = 2<br/>value = -0.174>, fillcolor="#ffffff"] ;
388 -> 389 ;
390 [label=<squared_error = 0.0<br/>samples = 1<br/>value = -0.176>, fillcolor="#ffffff"] ;
389 -> 390 ;
391 [label=<squared_error = 0.0<br/>samples = 1<br/>value = -0.173>, fillcolor="#ffffff"] ;
389 -> 391 ;
392 [label=<Surface_habitable_logement &le; -0.423<br/>squared_error = 0.0<br/>samples = 7<br/>value = -0.167>, fillcolor="#ffffff"] ;
388 -> 392 ;
393 [label=<Qualité_isolation_menuiseries_moyenne &le; 0.09<br/>squared_error = 0.0<br/>samples = 5<br/>value = -0.166>, fillcolor="#ffffff"] ;
392 -> 393 ;
394 [label=<Qualité_isolation_murs_très bonne &le; 1.341<br/>squared_error = 0.0<br/>samples = 2<br/>value = -0.167>, fillcolor="#ffffff"] ;
393 -> 394 ;
395 [label=<squared_error = 0.0<br/>samples = 1<br/>value = -0.167>, fillcolor="#ffffff"] ;
394 -> 395 ;
396 [label=<squared_error = -0.0<br/>samples = 1<br/>value = -0.166>, fillcolor="#ffffff"] ;
394 -> 396 ;
397 [label=<Déperditions_ponts_thermiques &le; -0.448<br/>squared_error = 0.0<br/>samples = 3<br/>value = -0.165>, fillcolor="#ffffff"] ;
393 -> 397 ;
398 [label=<squared_error = 0.0<br/>samples = 1<br/>value = -0.165>, fillcolor="#ffffff"] ;
397 -> 398 ;
399 [label=<squared_error = 0.0<br/>samples = 2<br/>value = -0.165>, fillcolor="#ffffff"] ;
397 -> 399 ;
400 [label=<Deperditions_baies_vitrées &le; -0.476<br/>squared_error = 0.0<br/>samples = 2<br/>value = -0.169>, fillcolor="#ffffff"] ;
392 -> 400 ;
401 [label=<squared_error = 0.0<br/>samples = 1<br/>value = -0.167>, fillcolor="#ffffff"] ;
400 -> 401 ;
402 [label=<squared_error = 0.0<br/>samples = 1<br/>value = -0.171>, fillcolor="#ffffff"] ;
400 -> 402 ;
403 [label=<Déperditions_renouvellement_air &le; -0.496<br/>squared_error = 0.0<br/>samples = 56<br/>value = -0.146>, fillcolor="#ffffff"] ;
227 -> 403 ;
404 [label=<Deperditions_planchers_hauts &le; -0.327<br/>squared_error = 0.0<br/>samples = 25<br/>value = -0.152>, fillcolor="#ffffff"] ;
403 -> 404 ;
405 [label=<Deperditions_baies_vitrées &le; -0.474<br/>squared_error = 0.0<br/>samples = 24<br/>value = -0.153>, fillcolor="#ffffff"] ;
404 -> 405 ;
406 [label=<Inertie_lourde_(0/1) &le; -0.224<br/>squared_error = 0.0<br/>samples = 17<br/>value = -0.15>, fillcolor="#ffffff"] ;
405 -> 406 ;
407 [label=<Déperditions_renouvellement_air &le; -0.497<br/>squared_error = 0.0<br/>samples = 5<br/>value = -0.161>, fillcolor="#ffffff"] ;
406 -> 407 ;
408 [label=<squared_error = 0.0<br/>samples = 1<br/>value = -0.167>, fillcolor="#ffffff"] ;
407 -> 408 ;
409 [label=<Déperditions_ponts_thermiques &le; -0.448<br/>squared_error = 0.0<br/>samples = 4<br/>value = -0.159>, fillcolor="#ffffff"] ;
407 -> 409 ;
410 [label=<squared_error = 0.0<br/>samples = 1<br/>value = -0.162>, fillcolor="#ffffff"] ;
409 -> 410 ;
411 [label=<Isolation_toiture_(0/1) &le; 0.974<br/>squared_error = 0.0<br/>samples = 3<br/>value = -0.158>, fillcolor="#ffffff"] ;
409 -> 411 ;
412 [label=<Deperditions_baies_vitrées &le; -0.479<br/>squared_error = 0.0<br/>samples = 2<br/>value = -0.158>, fillcolor="#ffffff"] ;
411 -> 412 ;
413 [label=<squared_error = 0.0<br/>samples = 1<br/>value = -0.158>, fillcolor="#ffffff"] ;
412 -> 413 ;
414 [label=<squared_error = 0.0<br/>samples = 1<br/>value = -0.157>, fillcolor="#ffffff"] ;
412 -> 414 ;
415 [label=<squared_error = 0.0<br/>samples = 1<br/>value = -0.159>, fillcolor="#ffffff"] ;
411 -> 415 ;
416 [label=<Période_construction_2006-2012 &le; 1.303<br/>squared_error = 0.0<br/>samples = 12<br/>value = -0.145>, fillcolor="#ffffff"] ;
406 -> 416 ;
417 [label=<Déperditions_ponts_thermiques &le; -0.448<br/>squared_error = 0.0<br/>samples = 8<br/>value = -0.14>, fillcolor="#ffffff"] ;
416 -> 417 ;
418 [label=<squared_error = 0.0<br/>samples = 1<br/>value = -0.155>, fillcolor="#ffffff"] ;
417 -> 418 ;
419 [label=<Surface_habitable_logement &le; -0.74<br/>squared_error = 0.0<br/>samples = 7<br/>value = -0.137>, fillcolor="#ffffff"] ;
417 -> 419 ;
420 [label=<Année_construction &le; -0.053<br/>squared_error = 0.0<br/>samples = 4<br/>value = -0.141>, fillcolor="#ffffff"] ;
419 -> 420 ;
421 [label=<squared_error = 0.0<br/>samples = 1<br/>value = -0.139>, fillcolor="#ffffff"] ;
420 -> 421 ;
422 [label=<Deperditions_planchers_hauts &le; -0.333<br/>squared_error = 0.0<br/>samples = 3<br/>value = -0.142>, fillcolor="#ffffff"] ;
420 -> 422 ;
423 [label=<Déperditions_renouvellement_air &le; -0.496<br/>squared_error = 0.0<br/>samples = 2<br/>value = -0.141>, fillcolor="#ffffff"] ;
422 -> 423 ;
424 [label=<squared_error = 0.0<br/>samples = 1<br/>value = -0.141>, fillcolor="#ffffff"] ;
423 -> 424 ;
425 [label=<squared_error = -0.0<br/>samples = 1<br/>value = -0.141>, fillcolor="#ffffff"] ;
423 -> 425 ;
426 [label=<squared_error = 0.0<br/>samples = 1<br/>value = -0.143>, fillcolor="#ffffff"] ;
422 -> 426 ;
427 [label=<Qualité_isolation_menuiseries_moyenne &le; 0.09<br/>squared_error = 0.0<br/>samples = 3<br/>value = -0.133>, fillcolor="#ffffff"] ;
419 -> 427 ;
428 [label=<Année_construction &le; 1.166<br/>squared_error = 0.0<br/>samples = 2<br/>value = -0.134>, fillcolor="#ffffff"] ;
427 -> 428 ;
429 [label=<squared_error = 0.0<br/>samples = 1<br/>value = -0.133>, fillcolor="#ffffff"] ;
428 -> 429 ;
430 [label=<squared_error = -0.0<br/>samples = 1<br/>value = -0.134>, fillcolor="#ffffff"] ;
428 -> 430 ;
431 [label=<squared_error = -0.0<br/>samples = 1<br/>value = -0.131>, fillcolor="#ffffff"] ;
427 -> 431 ;
432 [label=<Déperditions_portes &le; -0.373<br/>squared_error = 0.0<br/>samples = 4<br/>value = -0.157>, fillcolor="#ffffff"] ;
416 -> 432 ;
433 [label=<Etiquette_DPE_D &le; 0.336<br/>squared_error = 0.0<br/>samples = 2<br/>value = -0.147>, fillcolor="#ffffff"] ;
432 -> 433 ;
434 [label=<squared_error = 0.0<br/>samples = 1<br/>value = -0.149>, fillcolor="#ffffff"] ;
433 -> 434 ;
435 [label=<squared_error = -0.0<br/>samples = 1<br/>value = -0.145>, fillcolor="#ffffff"] ;
433 -> 435 ;
436 [label=<Qualité_isolation_murs_insuffisante &le; -0.157<br/>squared_error = 0.0<br/>samples = 2<br/>value = -0.167>, fillcolor="#ffffff"] ;
432 -> 436 ;
437 [label=<squared_error = 0.0<br/>samples = 1<br/>value = -0.169>, fillcolor="#ffffff"] ;
436 -> 437 ;
438 [label=<squared_error = 0.0<br/>samples = 1<br/>value = -0.165>, fillcolor="#ffffff"] ;
436 -> 438 ;
439 [label=<Deperditions_baies_vitrées &le; -0.474<br/>squared_error = 0.0<br/>samples = 7<br/>value = -0.162>, fillcolor="#ffffff"] ;
405 -> 439 ;
440 [label=<Deperditions_baies_vitrées &le; -0.474<br/>squared_error = 0.0<br/>samples = 2<br/>value = -0.169>, fillcolor="#ffffff"] ;
439 -> 440 ;
441 [label=<squared_error = 0.0<br/>samples = 1<br/>value = -0.172>, fillcolor="#ffffff"] ;
440 -> 441 ;
442 [label=<squared_error = -0.0<br/>samples = 1<br/>value = -0.166>, fillcolor="#ffffff"] ;
440 -> 442 ;
443 [label=<Déperditions_ponts_thermiques &le; -0.445<br/>squared_error = 0.0<br/>samples = 5<br/>value = -0.159>, fillcolor="#ffffff"] ;
439 -> 443 ;
444 [label=<Qualité_isolation_menuiseries_moyenne &le; 0.09<br/>squared_error = 0.0<br/>samples = 2<br/>value = -0.164>, fillcolor="#ffffff"] ;
443 -> 444 ;
445 [label=<squared_error = 0.0<br/>samples = 1<br/>value = -0.163>, fillcolor="#ffffff"] ;
444 -> 445 ;
446 [label=<squared_error = 0.0<br/>samples = 1<br/>value = -0.165>, fillcolor="#ffffff"] ;
444 -> 446 ;
447 [label=<Deperditions_baies_vitrées &le; -0.473<br/>squared_error = 0.0<br/>samples = 3<br/>value = -0.156>, fillcolor="#ffffff"] ;
443 -> 447 ;
448 [label=<squared_error = 0.0<br/>samples = 1<br/>value = -0.16>, fillcolor="#ffffff"] ;
447 -> 448 ;
449 [label=<Qualité_isolation_murs_très bonne &le; 1.341<br/>squared_error = 0.0<br/>samples = 2<br/>value = -0.154>, fillcolor="#ffffff"] ;
447 -> 449 ;
450 [label=<squared_error = 0.0<br/>samples = 1<br/>value = -0.154>, fillcolor="#ffffff"] ;
449 -> 450 ;
451 [label=<squared_error = -0.0<br/>samples = 1<br/>value = -0.154>, fillcolor="#ffffff"] ;
449 -> 451 ;
452 [label=<squared_error = 0.0<br/>samples = 1<br/>value = -0.12>, fillcolor="#ffffff"] ;
404 -> 452 ;
453 [label=<Hauteur_sous-plafond &le; -0.623<br/>squared_error = 0.0<br/>samples = 31<br/>value = -0.141>, fillcolor="#ffffff"] ;
403 -> 453 ;
454 [label=<squared_error = 0.0<br/>samples = 1<br/>value = -0.097>, fillcolor="#ffffff"] ;
453 -> 454 ;
455 [label=<Déperditions_ponts_thermiques &le; -0.441<br/>squared_error = 0.0<br/>samples = 30<br/>value = -0.143>, fillcolor="#ffffff"] ;
453 -> 455 ;
456 [label=<Déperditions_renouvellement_air &le; -0.494<br/>squared_error = 0.0<br/>samples = 29<br/>value = -0.144>, fillcolor="#ffffff"] ;
455 -> 456 ;
457 [label=<Surface_habitable_logement &le; -0.564<br/>squared_error = 0.0<br/>samples = 24<br/>value = -0.141>, fillcolor="#ffffff"] ;
456 -> 457 ;
458 [label=<Etiquette_DPE_D &le; 0.336<br/>squared_error = 0.0<br/>samples = 10<br/>value = -0.148>, fillcolor="#ffffff"] ;
457 -> 458 ;
459 [label=<Qualité_isolation_murs_insuffisante &le; -0.157<br/>squared_error = 0.0<br/>samples = 7<br/>value = -0.155>, fillcolor="#ffffff"] ;
458 -> 459 ;
460 [label=<Deperditions_planchers_bas &le; -0.453<br/>squared_error = 0.0<br/>samples = 4<br/>value = -0.15>, fillcolor="#ffffff"] ;
459 -> 460 ;
461 [label=<Déperditions_ponts_thermiques &le; -0.442<br/>squared_error = 0.0<br/>samples = 3<br/>value = -0.147>, fillcolor="#ffffff"] ;
460 -> 461 ;
462 [label=<Déperditions_ponts_thermiques &le; -0.445<br/>squared_error = 0.0<br/>samples = 2<br/>value = -0.147>, fillcolor="#ffffff"] ;
461 -> 462 ;
463 [label=<squared_error = 0.0<br/>samples = 1<br/>value = -0.147>, fillcolor="#ffffff"] ;
462 -> 463 ;
464 [label=<squared_error = 0.0<br/>samples = 1<br/>value = -0.147>, fillcolor="#ffffff"] ;
462 -> 464 ;
465 [label=<squared_error = 0.0<br/>samples = 1<br/>value = -0.146>, fillcolor="#ffffff"] ;
461 -> 465 ;
466 [label=<squared_error = 0.0<br/>samples = 1<br/>value = -0.159>, fillcolor="#ffffff"] ;
460 -> 466 ;
467 [label=<Déperditions_murs &le; -0.356<br/>squared_error = 0.0<br/>samples = 3<br/>value = -0.161>, fillcolor="#ffffff"] ;
459 -> 467 ;
468 [label=<squared_error = 0.0<br/>samples = 1<br/>value = -0.157>, fillcolor="#ffffff"] ;
467 -> 468 ;
469 [label=<Déperditions_ponts_thermiques &le; -0.446<br/>squared_error = 0.0<br/>samples = 2<br/>value = -0.163>, fillcolor="#ffffff"] ;
467 -> 469 ;
470 [label=<squared_error = 0.0<br/>samples = 1<br/>value = -0.162>, fillcolor="#ffffff"] ;
469 -> 470 ;
471 [label=<squared_error = -0.0<br/>samples = 1<br/>value = -0.165>, fillcolor="#ffffff"] ;
469 -> 471 ;
472 [label=<Deperditions_enveloppe &le; -0.452<br/>squared_error = 0.0<br/>samples = 3<br/>value = -0.133>, fillcolor="#ffffff"] ;
458 -> 472 ;
473 [label=<squared_error = 0.0<br/>samples = 1<br/>value = -0.119>, fillcolor="#ffffff"] ;
472 -> 473 ;
474 [label=<Deperditions_enveloppe &le; -0.452<br/>squared_error = 0.0<br/>samples = 2<br/>value = -0.14>, fillcolor="#ffffff"] ;
472 -> 474 ;
475 [label=<squared_error = 0.0<br/>samples = 1<br/>value = -0.141>, fillcolor="#ffffff"] ;
474 -> 475 ;
476 [label=<squared_error = -0.0<br/>samples = 1<br/>value = -0.139>, fillcolor="#ffffff"] ;
474 -> 476 ;
477 [label=<Deperditions_enveloppe &le; -0.452<br/>squared_error = 0.0<br/>samples = 14<br/>value = -0.136>, fillcolor="#ffffff"] ;
457 -> 477 ;
478 [label=<Deperditions_enveloppe &le; -0.452<br/>squared_error = 0.0<br/>samples = 6<br/>value = -0.145>, fillcolor="#ffffff"] ;
477 -> 478 ;
479 [label=<Déperditions_ponts_thermiques &le; -0.448<br/>squared_error = 0.0<br/>samples = 3<br/>value = -0.136>, fillcolor="#ffffff"] ;
478 -> 479 ;
480 [label=<squared_error = 0.0<br/>samples = 1<br/>value = -0.131>, fillcolor="#ffffff"] ;
479 -> 480 ;
481 [label=<Déperditions_ponts_thermiques &le; -0.445<br/>squared_error = 0.0<br/>samples = 2<br/>value = -0.139>, fillcolor="#ffffff"] ;
479 -> 481 ;
482 [label=<squared_error = 0.0<br/>samples = 1<br/>value = -0.139>, fillcolor="#ffffff"] ;
481 -> 482 ;
483 [label=<squared_error = -0.0<br/>samples = 1<br/>value = -0.138>, fillcolor="#ffffff"] ;
481 -> 483 ;
484 [label=<Surface_habitable_logement &le; -0.391<br/>squared_error = 0.0<br/>samples = 3<br/>value = -0.153>, fillcolor="#ffffff"] ;
478 -> 484 ;
485 [label=<Déperditions_renouvellement_air &le; -0.495<br/>squared_error = 0.0<br/>samples = 2<br/>value = -0.157>, fillcolor="#ffffff"] ;
484 -> 485 ;
486 [label=<squared_error = 0.0<br/>samples = 1<br/>value = -0.153>, fillcolor="#ffffff"] ;
485 -> 486 ;
487 [label=<squared_error = 0.0<br/>samples = 1<br/>value = -0.16>, fillcolor="#ffffff"] ;
485 -> 487 ;
488 [label=<squared_error = -0.0<br/>samples = 1<br/>value = -0.146>, fillcolor="#ffffff"] ;
484 -> 488 ;
489 [label=<Qualité_isolation_enveloppe_très bonne &le; 0.97<br/>squared_error = 0.0<br/>samples = 8<br/>value = -0.13>, fillcolor="#ffffff"] ;
477 -> 489 ;
490 [label=<Deperditions_baies_vitrées &le; -0.469<br/>squared_error = 0.0<br/>samples = 5<br/>value = -0.136>, fillcolor="#ffffff"] ;
489 -> 490 ;
491 [label=<Protection_solaire_exterieure_(0/1) &le; -0.082<br/>squared_error = 0.0<br/>samples = 4<br/>value = -0.134>, fillcolor="#ffffff"] ;
490 -> 491 ;
492 [label=<Deperditions_enveloppe &le; -0.452<br/>squared_error = 0.0<br/>samples = 2<br/>value = -0.132>, fillcolor="#ffffff"] ;
491 -> 492 ;
493 [label=<squared_error = 0.0<br/>samples = 1<br/>value = -0.132>, fillcolor="#ffffff"] ;
492 -> 493 ;
494 [label=<squared_error = -0.0<br/>samples = 1<br/>value = -0.132>, fillcolor="#ffffff"] ;
492 -> 494 ;
495 [label=<Deperditions_baies_vitrées &le; -0.477<br/>squared_error = 0.0<br/>samples = 2<br/>value = -0.135>, fillcolor="#ffffff"] ;
491 -> 495 ;
496 [label=<squared_error = 0.0<br/>samples = 1<br/>value = -0.136>, fillcolor="#ffffff"] ;
495 -> 496 ;
497 [label=<squared_error = -0.0<br/>samples = 1<br/>value = -0.135>, fillcolor="#ffffff"] ;
495 -> 497 ;
498 [label=<squared_error = -0.0<br/>samples = 1<br/>value = -0.144>, fillcolor="#ffffff"] ;
490 -> 498 ;
499 [label=<Année_construction &le; 0.494<br/>squared_error = 0.0<br/>samples = 3<br/>value = -0.121>, fillcolor="#ffffff"] ;
489 -> 499 ;
500 [label=<Déperditions_renouvellement_air &le; -0.495<br/>squared_error = 0.0<br/>samples = 2<br/>value = -0.124>, fillcolor="#ffffff"] ;
499 -> 500 ;
501 [label=<squared_error = 0.0<br/>samples = 1<br/>value = -0.125>, fillcolor="#ffffff"] ;
500 -> 501 ;
502 [label=<squared_error = -0.0<br/>samples = 1<br/>value = -0.122>, fillcolor="#ffffff"] ;
500 -> 502 ;
503 [label=<squared_error = 0.0<br/>samples = 1<br/>value = -0.115>, fillcolor="#ffffff"] ;
499 -> 503 ;
504 [label=<Isolation_toiture_(0/1) &le; 0.974<br/>squared_error = 0.0<br/>samples = 5<br/>value = -0.157>, fillcolor="#ffffff"] ;
456 -> 504 ;
505 [label=<Déperditions_renouvellement_air &le; -0.494<br/>squared_error = 0.0<br/>samples = 4<br/>value = -0.161>, fillcolor="#ffffff"] ;
504 -> 505 ;
506 [label=<Déperditions_murs &le; -0.356<br/>squared_error = 0.0<br/>samples = 2<br/>value = -0.164>, fillcolor="#ffffff"] ;
505 -> 506 ;
507 [label=<squared_error = 0.0<br/>samples = 1<br/>value = -0.165>, fillcolor="#ffffff"] ;
506 -> 507 ;
508 [label=<squared_error = 0.0<br/>samples = 1<br/>value = -0.163>, fillcolor="#ffffff"] ;
506 -> 508 ;
509 [label=<Deperditions_baies_vitrées &le; -0.476<br/>squared_error = 0.0<br/>samples = 2<br/>value = -0.158>, fillcolor="#ffffff"] ;
505 -> 509 ;
510 [label=<squared_error = 0.0<br/>samples = 1<br/>value = -0.158>, fillcolor="#ffffff"] ;
509 -> 510 ;
511 [label=<squared_error = -0.0<br/>samples = 1<br/>value = -0.158>, fillcolor="#ffffff"] ;
509 -> 511 ;
512 [label=<squared_error = -0.0<br/>samples = 1<br/>value = -0.143>, fillcolor="#ffffff"] ;
504 -> 512 ;
513 [label=<squared_error = -0.0<br/>samples = 1<br/>value = -0.099>, fillcolor="#ffffff"] ;
455 -> 513 ;
514 [label=<Deperditions_baies_vitrées &le; -0.476<br/>squared_error = 0.0<br/>samples = 18<br/>value = -0.14>, fillcolor="#ffffff"] ;
226 -> 514 ;
515 [label=<Deperditions_enveloppe &le; -0.452<br/>squared_error = 0.0<br/>samples = 12<br/>value = -0.148>, fillcolor="#ffffff"] ;
514 -> 515 ;
516 [label=<Déperditions_portes &le; -0.362<br/>squared_error = 0.0<br/>samples = 11<br/>value = -0.151>, fillcolor="#ffffff"] ;
515 -> 516 ;
517 [label=<Déperditions_renouvellement_air &le; -0.496<br/>squared_error = 0.0<br/>samples = 9<br/>value = -0.153>, fillcolor="#ffffff"] ;
516 -> 517 ;
518 [label=<Année_construction &le; 0.525<br/>squared_error = 0.0<br/>samples = 7<br/>value = -0.15>, fillcolor="#ffffff"] ;
517 -> 518 ;
519 [label=<Deperditions_planchers_bas &le; -0.415<br/>squared_error = 0.0<br/>samples = 3<br/>value = -0.155>, fillcolor="#ffffff"] ;
518 -> 519 ;
520 [label=<Qualité_isolation_plancher_bas_insuffisante &le; 0.599<br/>squared_error = 0.0<br/>samples = 2<br/>value = -0.153>, fillcolor="#ffffff"] ;
519 -> 520 ;
521 [label=<squared_error = 0.0<br/>samples = 1<br/>value = -0.153>, fillcolor="#ffffff"] ;
520 -> 521 ;
522 [label=<squared_error = -0.0<br/>samples = 1<br/>value = -0.154>, fillcolor="#ffffff"] ;
520 -> 522 ;
523 [label=<squared_error = -0.0<br/>samples = 1<br/>value = -0.158>, fillcolor="#ffffff"] ;
519 -> 523 ;
524 [label=<Déperditions_renouvellement_air &le; -0.497<br/>squared_error = 0.0<br/>samples = 4<br/>value = -0.147>, fillcolor="#ffffff"] ;
518 -> 524 ;
525 [label=<squared_error = 0.0<br/>samples = 1<br/>value = -0.146>, fillcolor="#ffffff"] ;
524 -> 525 ;
526 [label=<Etiquette_DPE_D &le; 0.336<br/>squared_error = 0.0<br/>samples = 3<br/>value = -0.148>, fillcolor="#ffffff"] ;
524 -> 526 ;
527 [label=<Deperditions_enveloppe &le; -0.453<br/>squared_error = 0.0<br/>samples = 2<br/>value = -0.147>, fillcolor="#ffffff"] ;
526 -> 527 ;
528 [label=<squared_error = 0.0<br/>samples = 1<br/>value = -0.147>, fillcolor="#ffffff"] ;
527 -> 528 ;
529 [label=<squared_error = -0.0<br/>samples = 1<br/>value = -0.147>, fillcolor="#ffffff"] ;
527 -> 529 ;
530 [label=<squared_error = -0.0<br/>samples = 1<br/>value = -0.148>, fillcolor="#ffffff"] ;
526 -> 530 ;
531 [label=<Déperditions_ponts_thermiques &le; -0.446<br/>squared_error = 0.0<br/>samples = 2<br/>value = -0.163>, fillcolor="#ffffff"] ;
517 -> 531 ;
532 [label=<squared_error = 0.0<br/>samples = 1<br/>value = -0.161>, fillcolor="#ffffff"] ;
531 -> 532 ;
533 [label=<squared_error = 0.0<br/>samples = 1<br/>value = -0.165>, fillcolor="#ffffff"] ;
531 -> 533 ;
534 [label=<Deperditions_baies_vitrées &le; -0.477<br/>squared_error = 0.0<br/>samples = 2<br/>value = -0.14>, fillcolor="#ffffff"] ;
516 -> 534 ;
535 [label=<squared_error = 0.0<br/>samples = 1<br/>value = -0.14>, fillcolor="#ffffff"] ;
534 -> 535 ;
536 [label=<squared_error = 0.0<br/>samples = 1<br/>value = -0.141>, fillcolor="#ffffff"] ;
534 -> 536 ;
537 [label=<squared_error = 0.0<br/>samples = 1<br/>value = -0.113>, fillcolor="#ffffff"] ;
515 -> 537 ;
538 [label=<Qualité_isolation_plancher_bas_moyenne &le; 1.399<br/>squared_error = 0.0<br/>samples = 6<br/>value = -0.125>, fillcolor="#ffffff"] ;
514 -> 538 ;
539 [label=<Qualité_isolation_murs_très bonne &le; 1.341<br/>squared_error = 0.0<br/>samples = 5<br/>value = -0.131>, fillcolor="#ffffff"] ;
538 -> 539 ;
540 [label=<squared_error = 0.0<br/>samples = 1<br/>value = -0.139>, fillcolor="#ffffff"] ;
539 -> 540 ;
541 [label=<Déperditions_murs &le; -0.357<br/>squared_error = 0.0<br/>samples = 4<br/>value = -0.128>, fillcolor="#ffffff"] ;
539 -> 541 ;
542 [label=<squared_error = 0.0<br/>samples = 2<br/>value = -0.127>, fillcolor="#ffffff"] ;
541 -> 542 ;
543 [label=<squared_error = 0.0<br/>samples = 2<br/>value = -0.13>, fillcolor="#ffffff"] ;
541 -> 543 ;
544 [label=<squared_error = -0.0<br/>samples = 1<br/>value = -0.098>, fillcolor="#ffffff"] ;
538 -> 544 ;
545 [label=<Qualité_isolation_menuiseries_moyenne &le; 0.09<br/>squared_error = 0.0<br/>samples = 21<br/>value = -0.138>, fillcolor="#ffffff"] ;
225 -> 545 ;
546 [label=<Surface_habitable_logement &le; -0.389<br/>squared_error = 0.0<br/>samples = 19<br/>value = -0.14>, fillcolor="#ffffff"] ;
545 -> 546 ;
547 [label=<Déperditions_renouvellement_air &le; -0.493<br/>squared_error = 0.0<br/>samples = 8<br/>value = -0.147>, fillcolor="#ffffff"] ;
546 -> 547 ;
548 [label=<squared_error = 0.0<br/>samples = 1<br/>value = -0.163>, fillcolor="#ffffff"] ;
547 -> 548 ;
549 [label=<Qualité_isolation_enveloppe_très bonne &le; 0.97<br/>squared_error = 0.0<br/>samples = 7<br/>value = -0.145>, fillcolor="#ffffff"] ;
547 -> 549 ;
550 [label=<Deperditions_baies_vitrées &le; -0.476<br/>squared_error = 0.0<br/>samples = 5<br/>value = -0.147>, fillcolor="#ffffff"] ;
549 -> 550 ;
551 [label=<Déperditions_renouvellement_air &le; -0.492<br/>squared_error = 0.0<br/>samples = 2<br/>value = -0.151>, fillcolor="#ffffff"] ;
550 -> 551 ;
552 [label=<squared_error = 0.0<br/>samples = 1<br/>value = -0.151>, fillcolor="#ffffff"] ;
551 -> 552 ;
553 [label=<squared_error = 0.0<br/>samples = 1<br/>value = -0.152>, fillcolor="#ffffff"] ;
551 -> 553 ;
554 [label=<Déperditions_renouvellement_air &le; -0.493<br/>squared_error = 0.0<br/>samples = 3<br/>value = -0.145>, fillcolor="#ffffff"] ;
550 -> 554 ;
555 [label=<squared_error = 0.0<br/>samples = 1<br/>value = -0.146>, fillcolor="#ffffff"] ;
554 -> 555 ;
556 [label=<squared_error = -0.0<br/>samples = 2<br/>value = -0.144>, fillcolor="#ffffff"] ;
554 -> 556 ;
557 [label=<Etiquette_DPE_D &le; 0.336<br/>squared_error = 0.0<br/>samples = 2<br/>value = -0.138>, fillcolor="#ffffff"] ;
549 -> 557 ;
558 [label=<squared_error = 0.0<br/>samples = 1<br/>value = -0.14>, fillcolor="#ffffff"] ;
557 -> 558 ;
559 [label=<squared_error = 0.0<br/>samples = 1<br/>value = -0.136>, fillcolor="#ffffff"] ;
557 -> 559 ;
560 [label=<Surface_habitable_logement &le; -0.153<br/>squared_error = 0.0<br/>samples = 11<br/>value = -0.135>, fillcolor="#ffffff"] ;
546 -> 560 ;
561 [label=<Deperditions_baies_vitrées &le; -0.475<br/>squared_error = 0.0<br/>samples = 4<br/>value = -0.128>, fillcolor="#ffffff"] ;
560 -> 561 ;
562 [label=<Période_construction_après 2021 &le; 4.891<br/>squared_error = 0.0<br/>samples = 2<br/>value = -0.137>, fillcolor="#ffffff"] ;
561 -> 562 ;
563 [label=<squared_error = 0.0<br/>samples = 1<br/>value = -0.133>, fillcolor="#ffffff"] ;
562 -> 563 ;
564 [label=<squared_error = -0.0<br/>samples = 1<br/>value = -0.141>, fillcolor="#ffffff"] ;
562 -> 564 ;
565 [label=<Année_construction &le; 0.908<br/>squared_error = 0.0<br/>samples = 2<br/>value = -0.119>, fillcolor="#ffffff"] ;
561 -> 565 ;
566 [label=<squared_error = 0.0<br/>samples = 1<br/>value = -0.121>, fillcolor="#ffffff"] ;
565 -> 566 ;
567 [label=<squared_error = -0.0<br/>samples = 1<br/>value = -0.118>, fillcolor="#ffffff"] ;
565 -> 567 ;
568 [label=<Année_construction &le; 0.197<br/>squared_error = 0.0<br/>samples = 7<br/>value = -0.14>, fillcolor="#ffffff"] ;
560 -> 568 ;
569 [label=<Déperditions_murs &le; -0.356<br/>squared_error = 0.0<br/>samples = 2<br/>value = -0.147>, fillcolor="#ffffff"] ;
568 -> 569 ;
570 [label=<squared_error = 0.0<br/>samples = 1<br/>value = -0.146>, fillcolor="#ffffff"] ;
569 -> 570 ;
571 [label=<squared_error = 0.0<br/>samples = 1<br/>value = -0.148>, fillcolor="#ffffff"] ;
569 -> 571 ;
572 [label=<Année_construction &le; 0.955<br/>squared_error = 0.0<br/>samples = 5<br/>value = -0.137>, fillcolor="#ffffff"] ;
568 -> 572 ;
573 [label=<squared_error = 0.0<br/>samples = 1<br/>value = -0.131>, fillcolor="#ffffff"] ;
572 -> 573 ;
574 [label=<Déperditions_murs &le; -0.355<br/>squared_error = 0.0<br/>samples = 4<br/>value = -0.138>, fillcolor="#ffffff"] ;
572 -> 574 ;
575 [label=<squared_error = 0.0<br/>samples = 2<br/>value = -0.14>, fillcolor="#ffffff"] ;
574 -> 575 ;
576 [label=<Deperditions_baies_vitrées &le; -0.476<br/>squared_error = 0.0<br/>samples = 2<br/>value = -0.137>, fillcolor="#ffffff"] ;
574 -> 576 ;
577 [label=<squared_error = 0.0<br/>samples = 1<br/>value = -0.137>, fillcolor="#ffffff"] ;
576 -> 577 ;
578 [label=<squared_error = 0.0<br/>samples = 1<br/>value = -0.137>, fillcolor="#ffffff"] ;
576 -> 578 ;
579 [label=<Deperditions_enveloppe &le; -0.452<br/>squared_error = 0.0<br/>samples = 2<br/>value = -0.115>, fillcolor="#ffffff"] ;
545 -> 579 ;
580 [label=<squared_error = 0.0<br/>samples = 1<br/>value = -0.113>, fillcolor="#ffffff"] ;
579 -> 580 ;
581 [label=<squared_error = -0.0<br/>samples = 1<br/>value = -0.118>, fillcolor="#ffffff"] ;
579 -> 581 ;
582 [label=<Qualité_isolation_enveloppe_très bonne &le; 0.97<br/>squared_error = 0.0<br/>samples = 2<br/>value = -0.11>, fillcolor="#ffffff"] ;
224 -> 582 ;
583 [label=<squared_error = 0.0<br/>samples = 1<br/>value = -0.113>, fillcolor="#ffffff"] ;
582 -> 583 ;
584 [label=<squared_error = 0.0<br/>samples = 1<br/>value = -0.108>, fillcolor="#ffffff"] ;
582 -> 584 ;
585 [label=<Deperditions_enveloppe &le; -0.453<br/>squared_error = 0.0<br/>samples = 2<br/>value = -0.108>, fillcolor="#ffffff"] ;
223 -> 585 ;
586 [label=<squared_error = 0.0<br/>samples = 1<br/>value = -0.129>, fillcolor="#ffffff"] ;
585 -> 586 ;
587 [label=<squared_error = -0.0<br/>samples = 1<br/>value = -0.086>, fillcolor="#ffffff"] ;
585 -> 587 ;
588 [label=<squared_error = 0.0<br/>samples = 1<br/>value = -0.073>, fillcolor="#fffffe"] ;
222 -> 588 ;
589 [label=<Deperditions_enveloppe &le; -0.454<br/>squared_error = 0.0<br/>samples = 815<br/>value = -0.136>, fillcolor="#ffffff"] ;
5 -> 589 ;
590 [label=<Hauteur_sous-plafond &le; -0.083<br/>squared_error = 0.0<br/>samples = 355<br/>value = -0.144>, fillcolor="#ffffff"] ;
589 -> 590 ;
591 [label=<Déperditions_renouvellement_air &le; -0.499<br/>squared_error = 0.0<br/>samples = 245<br/>value = -0.141>, fillcolor="#ffffff"] ;
590 -> 591 ;
592 [label=<Etiquette_DPE_G &le; 2.536<br/>squared_error = 0.0<br/>samples = 48<br/>value = -0.146>, fillcolor="#ffffff"] ;
591 -> 592 ;
593 [label=<Deperditions_enveloppe &le; -0.455<br/>squared_error = 0.0<br/>samples = 47<br/>value = -0.147>, fillcolor="#ffffff"] ;
592 -> 593 ;
594 [label=<Déperditions_ponts_thermiques &le; -0.446<br/>squared_error = 0.0<br/>samples = 20<br/>value = -0.15>, fillcolor="#ffffff"] ;
593 -> 594 ;
595 [label=<Déperditions_portes &le; -0.361<br/>squared_error = 0.0<br/>samples = 19<br/>value = -0.149>, fillcolor="#ffffff"] ;
594 -> 595 ;
596 [label=<Etiquette_DPE_D &le; 0.336<br/>squared_error = 0.0<br/>samples = 17<br/>value = -0.15>, fillcolor="#ffffff"] ;
595 -> 596 ;
597 [label=<Qualité_isolation_menuiseries_très bonne &le; 0.752<br/>squared_error = 0.0<br/>samples = 9<br/>value = -0.153>, fillcolor="#ffffff"] ;
596 -> 597 ;
598 [label=<Hauteur_sous-plafond &le; -0.623<br/>squared_error = 0.0<br/>samples = 7<br/>value = -0.151>, fillcolor="#ffffff"] ;
597 -> 598 ;
599 [label=<squared_error = 0.0<br/>samples = 1<br/>value = -0.147>, fillcolor="#ffffff"] ;
598 -> 599 ;
600 [label=<Année_construction &le; 1.033<br/>squared_error = 0.0<br/>samples = 6<br/>value = -0.152>, fillcolor="#ffffff"] ;
598 -> 600 ;
601 [label=<Isolation_toiture_(0/1) &le; 0.974<br/>squared_error = 0.0<br/>samples = 3<br/>value = -0.151>, fillcolor="#ffffff"] ;
600 -> 601 ;
602 [label=<squared_error = 0.0<br/>samples = 1<br/>value = -0.151>, fillcolor="#ffffff"] ;
601 -> 602 ;
603 [label=<Qualité_isolation_menuiseries_moyenne &le; 0.09<br/>squared_error = 0.0<br/>samples = 2<br/>value = -0.151>, fillcolor="#ffffff"] ;
601 -> 603 ;
604 [label=<squared_error = 0.0<br/>samples = 1<br/>value = -0.151>, fillcolor="#ffffff"] ;
603 -> 604 ;
605 [label=<squared_error = -0.0<br/>samples = 1<br/>value = -0.151>, fillcolor="#ffffff"] ;
603 -> 605 ;
606 [label=<Déperditions_murs &le; -0.357<br/>squared_error = 0.0<br/>samples = 3<br/>value = -0.153>, fillcolor="#ffffff"] ;
600 -> 606 ;
607 [label=<squared_error = 0.0<br/>samples = 2<br/>value = -0.153>, fillcolor="#ffffff"] ;
606 -> 607 ;
608 [label=<squared_error = -0.0<br/>samples = 1<br/>value = -0.154>, fillcolor="#ffffff"] ;
606 -> 608 ;
609 [label=<Protection_solaire_exterieure_(0/1) &le; -0.082<br/>squared_error = 0.0<br/>samples = 2<br/>value = -0.158>, fillcolor="#ffffff"] ;
597 -> 609 ;
610 [label=<squared_error = 0.0<br/>samples = 1<br/>value = -0.165>, fillcolor="#ffffff"] ;
609 -> 610 ;
611 [label=<squared_error = -0.0<br/>samples = 1<br/>value = -0.151>, fillcolor="#ffffff"] ;
609 -> 611 ;
612 [label=<Déperditions_renouvellement_air &le; -0.499<br/>squared_error = 0.0<br/>samples = 8<br/>value = -0.148>, fillcolor="#ffffff"] ;
596 -> 612 ;
613 [label=<Inertie_lourde_(0/1) &le; 0.13<br/>squared_error = 0.0<br/>samples = 5<br/>value = -0.148>, fillcolor="#ffffff"] ;
612 -> 613 ;
614 [label=<Deperditions_enveloppe &le; -0.455<br/>squared_error = 0.0<br/>samples = 3<br/>value = -0.148>, fillcolor="#ffffff"] ;
613 -> 614 ;
615 [label=<squared_error = 0.0<br/>samples = 1<br/>value = -0.148>, fillcolor="#ffffff"] ;
614 -> 615 ;
616 [label=<squared_error = -0.0<br/>samples = 2<br/>value = -0.147>, fillcolor="#ffffff"] ;
614 -> 616 ;
617 [label=<Période_construction_2013-2021 &le; 1.491<br/>squared_error = 0.0<br/>samples = 2<br/>value = -0.15>, fillcolor="#ffffff"] ;
613 -> 617 ;
618 [label=<squared_error = 0.0<br/>samples = 1<br/>value = -0.15>, fillcolor="#ffffff"] ;
617 -> 618 ;
619 [label=<squared_error = 0.0<br/>samples = 1<br/>value = -0.149>, fillcolor="#ffffff"] ;
617 -> 619 ;
620 [label=<Déperditions_renouvellement_air &le; -0.499<br/>squared_error = 0.0<br/>samples = 3<br/>value = -0.146>, fillcolor="#ffffff"] ;
612 -> 620 ;
621 [label=<squared_error = 0.0<br/>samples = 1<br/>value = -0.145>, fillcolor="#ffffff"] ;
620 -> 621 ;
622 [label=<Isolation_toiture_(0/1) &le; 0.974<br/>squared_error = 0.0<br/>samples = 2<br/>value = -0.147>, fillcolor="#ffffff"] ;
620 -> 622 ;
623 [label=<squared_error = 0.0<br/>samples = 1<br/>value = -0.147>, fillcolor="#ffffff"] ;
622 -> 623 ;
624 [label=<squared_error = 0.0<br/>samples = 1<br/>value = -0.147>, fillcolor="#ffffff"] ;
622 -> 624 ;
625 [label=<Protection_solaire_exterieure_(0/1) &le; 0.258<br/>squared_error = 0.0<br/>samples = 2<br/>value = -0.137>, fillcolor="#ffffff"] ;
595 -> 625 ;
626 [label=<squared_error = 0.0<br/>samples = 1<br/>value = -0.132>, fillcolor="#ffffff"] ;
625 -> 626 ;
627 [label=<squared_error = 0.0<br/>samples = 1<br/>value = -0.142>, fillcolor="#ffffff"] ;
625 -> 627 ;
628 [label=<squared_error = -0.0<br/>samples = 1<br/>value = -0.178>, fillcolor="#ffffff"] ;
594 -> 628 ;
629 [label=<Deperditions_baies_vitrées &le; -0.477<br/>squared_error = 0.0<br/>samples = 27<br/>value = -0.144>, fillcolor="#ffffff"] ;
593 -> 629 ;
630 [label=<Surface_habitable_logement &le; -1.436<br/>squared_error = 0.0<br/>samples = 26<br/>value = -0.143>, fillcolor="#ffffff"] ;
629 -> 630 ;
631 [label=<Qualité_isolation_murs_insuffisante &le; -0.157<br/>squared_error = 0.0<br/>samples = 10<br/>value = -0.145>, fillcolor="#ffffff"] ;
630 -> 631 ;
632 [label=<Déperditions_ponts_thermiques &le; -0.448<br/>squared_error = 0.0<br/>samples = 7<br/>value = -0.144>, fillcolor="#ffffff"] ;
631 -> 632 ;
633 [label=<Déperditions_renouvellement_air &le; -0.499<br/>squared_error = 0.0<br/>samples = 2<br/>value = -0.146>, fillcolor="#ffffff"] ;
632 -> 633 ;
634 [label=<squared_error = 0.0<br/>samples = 1<br/>value = -0.146>, fillcolor="#ffffff"] ;
633 -> 634 ;
635 [label=<squared_error = -0.0<br/>samples = 1<br/>value = -0.145>, fillcolor="#ffffff"] ;
633 -> 635 ;
636 [label=<Surface_habitable_logement &le; -1.506<br/>squared_error = 0.0<br/>samples = 5<br/>value = -0.143>, fillcolor="#ffffff"] ;
632 -> 636 ;
637 [label=<Deperditions_baies_vitrées &le; -0.481<br/>squared_error = 0.0<br/>samples = 3<br/>value = -0.143>, fillcolor="#ffffff"] ;
636 -> 637 ;
638 [label=<squared_error = 0.0<br/>samples = 1<br/>value = -0.143>, fillcolor="#ffffff"] ;
637 -> 638 ;
639 [label=<Etiquette_DPE_F &le; 1.807<br/>squared_error = 0.0<br/>samples = 2<br/>value = -0.142>, fillcolor="#ffffff"] ;
637 -> 639 ;
640 [label=<squared_error = 0.0<br/>samples = 1<br/>value = -0.142>, fillcolor="#ffffff"] ;
639 -> 640 ;
641 [label=<squared_error = -0.0<br/>samples = 1<br/>value = -0.143>, fillcolor="#ffffff"] ;
639 -> 641 ;
642 [label=<Qualité_isolation_enveloppe_très bonne &le; 0.97<br/>squared_error = 0.0<br/>samples = 2<br/>value = -0.144>, fillcolor="#ffffff"] ;
636 -> 642 ;
643 [label=<squared_error = 0.0<br/>samples = 1<br/>value = -0.144>, fillcolor="#ffffff"] ;
642 -> 643 ;
644 [label=<squared_error = 0.0<br/>samples = 1<br/>value = -0.144>, fillcolor="#ffffff"] ;
642 -> 644 ;
645 [label=<Période_construction_2006-2012 &le; 1.303<br/>squared_error = 0.0<br/>samples = 3<br/>value = -0.149>, fillcolor="#ffffff"] ;
631 -> 645 ;
646 [label=<Etiquette_DPE_D &le; 0.336<br/>squared_error = 0.0<br/>samples = 2<br/>value = -0.15>, fillcolor="#ffffff"] ;
645 -> 646 ;
647 [label=<squared_error = 0.0<br/>samples = 1<br/>value = -0.151>, fillcolor="#ffffff"] ;
646 -> 647 ;
648 [label=<squared_error = -0.0<br/>samples = 1<br/>value = -0.15>, fillcolor="#ffffff"] ;
646 -> 648 ;
649 [label=<squared_error = -0.0<br/>samples = 1<br/>value = -0.145>, fillcolor="#ffffff"] ;
645 -> 649 ;
650 [label=<Déperditions_ponts_thermiques &le; -0.449<br/>squared_error = 0.0<br/>samples = 16<br/>value = -0.142>, fillcolor="#ffffff"] ;
630 -> 650 ;
651 [label=<Surface_habitable_logement &le; -1.378<br/>squared_error = 0.0<br/>samples = 3<br/>value = -0.136>, fillcolor="#ffffff"] ;
650 -> 651 ;
652 [label=<Etiquette_DPE_D &le; 0.336<br/>squared_error = 0.0<br/>samples = 2<br/>value = -0.135>, fillcolor="#ffffff"] ;
651 -> 652 ;
653 [label=<squared_error = 0.0<br/>samples = 1<br/>value = -0.136>, fillcolor="#ffffff"] ;
652 -> 653 ;
654 [label=<squared_error = 0.0<br/>samples = 1<br/>value = -0.134>, fillcolor="#ffffff"] ;
652 -> 654 ;
655 [label=<squared_error = -0.0<br/>samples = 1<br/>value = -0.138>, fillcolor="#ffffff"] ;
651 -> 655 ;
656 [label=<Deperditions_enveloppe &le; -0.454<br/>squared_error = 0.0<br/>samples = 13<br/>value = -0.143>, fillcolor="#ffffff"] ;
650 -> 656 ;
657 [label=<Qualité_isolation_enveloppe_moyenne &le; 0.991<br/>squared_error = 0.0<br/>samples = 7<br/>value = -0.145>, fillcolor="#ffffff"] ;
656 -> 657 ;
658 [label=<Déperditions_murs &le; -0.358<br/>squared_error = 0.0<br/>samples = 4<br/>value = -0.146>, fillcolor="#ffffff"] ;
657 -> 658 ;
659 [label=<squared_error = 0.0<br/>samples = 1<br/>value = -0.145>, fillcolor="#ffffff"] ;
658 -> 659 ;
660 [label=<Année_construction &le; 1.353<br/>squared_error = 0.0<br/>samples = 3<br/>value = -0.146>, fillcolor="#ffffff"] ;
658 -> 660 ;
661 [label=<Protection_solaire_exterieure_(0/1) &le; -0.082<br/>squared_error = 0.0<br/>samples = 2<br/>value = -0.146>, fillcolor="#ffffff"] ;
660 -> 661 ;
662 [label=<squared_error = 0.0<br/>samples = 1<br/>value = -0.146>, fillcolor="#ffffff"] ;
661 -> 662 ;
663 [label=<squared_error = -0.0<br/>samples = 1<br/>value = -0.146>, fillcolor="#ffffff"] ;
661 -> 663 ;
664 [label=<squared_error = 0.0<br/>samples = 1<br/>value = -0.146>, fillcolor="#ffffff"] ;
660 -> 664 ;
665 [label=<Déperditions_portes &le; -0.373<br/>squared_error = 0.0<br/>samples = 3<br/>value = -0.144>, fillcolor="#ffffff"] ;
657 -> 665 ;
666 [label=<squared_error = 0.0<br/>samples = 1<br/>value = -0.143>, fillcolor="#ffffff"] ;
665 -> 666 ;
667 [label=<Isolation_toiture_(0/1) &le; 0.974<br/>squared_error = 0.0<br/>samples = 2<br/>value = -0.144>, fillcolor="#ffffff"] ;
665 -> 667 ;
668 [label=<squared_error = 0.0<br/>samples = 1<br/>value = -0.144>, fillcolor="#ffffff"] ;
667 -> 668 ;
669 [label=<squared_error = 0.0<br/>samples = 1<br/>value = -0.144>, fillcolor="#ffffff"] ;
667 -> 669 ;
670 [label=<Période_construction_2006-2012 &le; 1.303<br/>squared_error = 0.0<br/>samples = 6<br/>value = -0.141>, fillcolor="#ffffff"] ;
656 -> 670 ;
671 [label=<Déperditions_ponts_thermiques &le; -0.447<br/>squared_error = 0.0<br/>samples = 5<br/>value = -0.141>, fillcolor="#ffffff"] ;
670 -> 671 ;
672 [label=<Déperditions_ponts_thermiques &le; -0.448<br/>squared_error = 0.0<br/>samples = 2<br/>value = -0.141>, fillcolor="#ffffff"] ;
671 -> 672 ;
673 [label=<squared_error = 0.0<br/>samples = 1<br/>value = -0.141>, fillcolor="#ffffff"] ;
672 -> 673 ;
674 [label=<squared_error = -0.0<br/>samples = 1<br/>value = -0.14>, fillcolor="#ffffff"] ;
672 -> 674 ;
675 [label=<Deperditions_enveloppe &le; -0.454<br/>squared_error = 0.0<br/>samples = 3<br/>value = -0.142>, fillcolor="#ffffff"] ;
671 -> 675 ;
676 [label=<squared_error = 0.0<br/>samples = 1<br/>value = -0.143>, fillcolor="#ffffff"] ;
675 -> 676 ;
677 [label=<Qualité_isolation_enveloppe_très bonne &le; 0.97<br/>squared_error = 0.0<br/>samples = 2<br/>value = -0.142>, fillcolor="#ffffff"] ;
675 -> 677 ;
678 [label=<squared_error = 0.0<br/>samples = 1<br/>value = -0.142>, fillcolor="#ffffff"] ;
677 -> 678 ;
679 [label=<squared_error = -0.0<br/>samples = 1<br/>value = -0.142>, fillcolor="#ffffff"] ;
677 -> 679 ;
680 [label=<squared_error = 0.0<br/>samples = 1<br/>value = -0.139>, fillcolor="#ffffff"] ;
670 -> 680 ;
681 [label=<squared_error = -0.0<br/>samples = 1<br/>value = -0.155>, fillcolor="#ffffff"] ;
629 -> 681 ;
682 [label=<squared_error = -0.0<br/>samples = 1<br/>value = -0.126>, fillcolor="#ffffff"] ;
592 -> 682 ;
683 [label=<Déperditions_murs &le; -0.357<br/>squared_error = 0.0<br/>samples = 197<br/>value = -0.139>, fillcolor="#ffffff"] ;
591 -> 683 ;
684 [label=<Année_construction &le; 0.541<br/>squared_error = 0.0<br/>samples = 164<br/>value = -0.14>, fillcolor="#ffffff"] ;
683 -> 684 ;
685 [label=<Protection_solaire_exterieure_(0/1) &le; 0.598<br/>squared_error = 0.0<br/>samples = 37<br/>value = -0.137>, fillcolor="#ffffff"] ;
684 -> 685 ;
686 [label=<Déperditions_renouvellement_air &le; -0.498<br/>squared_error = 0.0<br/>samples = 21<br/>value = -0.133>, fillcolor="#ffffff"] ;
685 -> 686 ;
687 [label=<Deperditions_baies_vitrées &le; -0.479<br/>squared_error = 0.0<br/>samples = 14<br/>value = -0.129>, fillcolor="#ffffff"] ;
686 -> 687 ;
688 [label=<Hauteur_sous-plafond &le; -0.623<br/>squared_error = 0.0<br/>samples = 5<br/>value = -0.137>, fillcolor="#ffffff"] ;
687 -> 688 ;
689 [label=<squared_error = 0.0<br/>samples = 1<br/>value = -0.126>, fillcolor="#ffffff"] ;
688 -> 689 ;
690 [label=<Deperditions_enveloppe &le; -0.455<br/>squared_error = 0.0<br/>samples = 4<br/>value = -0.14>, fillcolor="#ffffff"] ;
688 -> 690 ;
691 [label=<squared_error = 0.0<br/>samples = 1<br/>value = -0.135>, fillcolor="#ffffff"] ;
690 -> 691 ;
692 [label=<Qualité_isolation_menuiseries_insuffisante &le; 1.286<br/>squared_error = 0.0<br/>samples = 3<br/>value = -0.142>, fillcolor="#ffffff"] ;
690 -> 692 ;
693 [label=<Deperditions_enveloppe &le; -0.454<br/>squared_error = 0.0<br/>samples = 2<br/>value = -0.141>, fillcolor="#ffffff"] ;
692 -> 693 ;
694 [label=<squared_error = 0.0<br/>samples = 1<br/>value = -0.141>, fillcolor="#ffffff"] ;
693 -> 694 ;
695 [label=<squared_error = 0.0<br/>samples = 1<br/>value = -0.14>, fillcolor="#ffffff"] ;
693 -> 695 ;
696 [label=<squared_error = 0.0<br/>samples = 1<br/>value = -0.144>, fillcolor="#ffffff"] ;
692 -> 696 ;
697 [label=<Deperditions_enveloppe &le; -0.454<br/>squared_error = 0.0<br/>samples = 9<br/>value = -0.124>, fillcolor="#ffffff"] ;
687 -> 697 ;
698 [label=<Déperditions_renouvellement_air &le; -0.498<br/>squared_error = 0.0<br/>samples = 8<br/>value = -0.125>, fillcolor="#ffffff"] ;
697 -> 698 ;
699 [label=<Deperditions_enveloppe &le; -0.454<br/>squared_error = 0.0<br/>samples = 4<br/>value = -0.127>, fillcolor="#ffffff"] ;
698 -> 699 ;
700 [label=<squared_error = -0.0<br/>samples = 3<br/>value = -0.127>, fillcolor="#ffffff"] ;
699 -> 700 ;
701 [label=<squared_error = 0.0<br/>samples = 1<br/>value = -0.128>, fillcolor="#ffffff"] ;
699 -> 701 ;
702 [label=<Déperditions_ponts_thermiques &le; -0.447<br/>squared_error = 0.0<br/>samples = 4<br/>value = -0.123>, fillcolor="#ffffff"] ;
698 -> 702 ;
703 [label=<squared_error = 0.0<br/>samples = 1<br/>value = -0.12>, fillcolor="#ffffff"] ;
702 -> 703 ;
704 [label=<Qualité_isolation_enveloppe_insuffisante &le; -0.098<br/>squared_error = 0.0<br/>samples = 3<br/>value = -0.124>, fillcolor="#ffffff"] ;
702 -> 704 ;
705 [label=<squared_error = 0.0<br/>samples = 1<br/>value = -0.126>, fillcolor="#ffffff"] ;
704 -> 705 ;
706 [label=<Année_construction &le; 0.361<br/>squared_error = 0.0<br/>samples = 2<br/>value = -0.123>, fillcolor="#ffffff"] ;
704 -> 706 ;
707 [label=<squared_error = 0.0<br/>samples = 1<br/>value = -0.124>, fillcolor="#ffffff"] ;
706 -> 707 ;
708 [label=<squared_error = 0.0<br/>samples = 1<br/>value = -0.123>, fillcolor="#ffffff"] ;
706 -> 708 ;
709 [label=<squared_error = 0.0<br/>samples = 1<br/>value = -0.116>, fillcolor="#ffffff"] ;
697 -> 709 ;
710 [label=<Période_construction_après 2021 &le; 4.891<br/>squared_error = 0.0<br/>samples = 7<br/>value = -0.142>, fillcolor="#ffffff"] ;
686 -> 710 ;
711 [label=<Qualité_isolation_menuiseries_moyenne &le; 0.09<br/>squared_error = 0.0<br/>samples = 6<br/>value = -0.141>, fillcolor="#ffffff"] ;
710 -> 711 ;
712 [label=<Déperditions_murs &le; -0.357<br/>squared_error = 0.0<br/>samples = 3<br/>value = -0.143>, fillcolor="#ffffff"] ;
711 -> 712 ;
713 [label=<squared_error = 0.0<br/>samples = 2<br/>value = -0.143>, fillcolor="#ffffff"] ;
712 -> 713 ;
714 [label=<squared_error = 0.0<br/>samples = 1<br/>value = -0.142>, fillcolor="#ffffff"] ;
712 -> 714 ;
715 [label=<Logement_traversant_(0/1) &le; -0.437<br/>squared_error = 0.0<br/>samples = 3<br/>value = -0.139>, fillcolor="#ffffff"] ;
711 -> 715 ;
716 [label=<Année_construction &le; 0.275<br/>squared_error = 0.0<br/>samples = 2<br/>value = -0.139>, fillcolor="#ffffff"] ;
715 -> 716 ;
717 [label=<squared_error = 0.0<br/>samples = 1<br/>value = -0.139>, fillcolor="#ffffff"] ;
716 -> 717 ;
718 [label=<squared_error = -0.0<br/>samples = 1<br/>value = -0.139>, fillcolor="#ffffff"] ;
716 -> 718 ;
719 [label=<squared_error = -0.0<br/>samples = 1<br/>value = -0.139>, fillcolor="#ffffff"] ;
715 -> 719 ;
720 [label=<squared_error = -0.0<br/>samples = 1<br/>value = -0.148>, fillcolor="#ffffff"] ;
710 -> 720 ;
721 [label=<Deperditions_baies_vitrées &le; -0.481<br/>squared_error = 0.0<br/>samples = 16<br/>value = -0.142>, fillcolor="#ffffff"] ;
685 -> 721 ;
722 [label=<squared_error = 0.0<br/>samples = 1<br/>value = -0.124>, fillcolor="#ffffff"] ;
721 -> 722 ;
723 [label=<Surface_habitable_logement &le; -1.414<br/>squared_error = 0.0<br/>samples = 15<br/>value = -0.143>, fillcolor="#ffffff"] ;
721 -> 723 ;
724 [label=<squared_error = 0.0<br/>samples = 1<br/>value = -0.152>, fillcolor="#ffffff"] ;
723 -> 724 ;
725 [label=<Deperditions_enveloppe &le; -0.455<br/>squared_error = 0.0<br/>samples = 14<br/>value = -0.142>, fillcolor="#ffffff"] ;
723 -> 725 ;
726 [label=<squared_error = 0.0<br/>samples = 1<br/>value = -0.136>, fillcolor="#ffffff"] ;
725 -> 726 ;
727 [label=<Deperditions_enveloppe &le; -0.455<br/>squared_error = 0.0<br/>samples = 13<br/>value = -0.143>, fillcolor="#ffffff"] ;
725 -> 727 ;
728 [label=<Etiquette_DPE_C &le; 0.331<br/>squared_error = 0.0<br/>samples = 5<br/>value = -0.145>, fillcolor="#ffffff"] ;
727 -> 728 ;
729 [label=<Déperditions_ponts_thermiques &le; -0.448<br/>squared_error = 0.0<br/>samples = 4<br/>value = -0.145>, fillcolor="#ffffff"] ;
728 -> 729 ;
730 [label=<squared_error = 0.0<br/>samples = 1<br/>value = -0.147>, fillcolor="#ffffff"] ;
729 -> 730 ;
731 [label=<Qualité_isolation_murs_insuffisante &le; -0.157<br/>squared_error = 0.0<br/>samples = 3<br/>value = -0.145>, fillcolor="#ffffff"] ;
729 -> 731 ;
732 [label=<Deperditions_enveloppe &le; -0.455<br/>squared_error = 0.0<br/>samples = 2<br/>value = -0.145>, fillcolor="#ffffff"] ;
731 -> 732 ;
733 [label=<squared_error = 0.0<br/>samples = 1<br/>value = -0.145>, fillcolor="#ffffff"] ;
732 -> 733 ;
734 [label=<squared_error = 0.0<br/>samples = 1<br/>value = -0.145>, fillcolor="#ffffff"] ;
732 -> 734 ;
735 [label=<squared_error = -0.0<br/>samples = 1<br/>value = -0.144>, fillcolor="#ffffff"] ;
731 -> 735 ;
736 [label=<squared_error = -0.0<br/>samples = 1<br/>value = -0.142>, fillcolor="#ffffff"] ;
728 -> 736 ;
737 [label=<Inertie_lourde_(0/1) &le; -0.224<br/>squared_error = 0.0<br/>samples = 8<br/>value = -0.141>, fillcolor="#ffffff"] ;
727 -> 737 ;
738 [label=<squared_error = 0.0<br/>samples = 1<br/>value = -0.14>, fillcolor="#ffffff"] ;
737 -> 738 ;
739 [label=<Deperditions_enveloppe &le; -0.454<br/>squared_error = 0.0<br/>samples = 7<br/>value = -0.142>, fillcolor="#ffffff"] ;
737 -> 739 ;
740 [label=<Etiquette_DPE_C &le; 0.331<br/>squared_error = 0.0<br/>samples = 3<br/>value = -0.142>, fillcolor="#ffffff"] ;
739 -> 740 ;
741 [label=<squared_error = 0.0<br/>samples = 2<br/>value = -0.142>, fillcolor="#ffffff"] ;
740 -> 741 ;
742 [label=<squared_error = -0.0<br/>samples = 1<br/>value = -0.142>, fillcolor="#ffffff"] ;
740 -> 742 ;
743 [label=<Qualité_isolation_murs_moyenne &le; 0.949<br/>squared_error = 0.0<br/>samples = 4<br/>value = -0.141>, fillcolor="#ffffff"] ;
739 -> 743 ;
744 [label=<Période_construction_2013-2021 &le; 1.491<br/>squared_error = 0.0<br/>samples = 3<br/>value = -0.141>, fillcolor="#ffffff"] ;
743 -> 744 ;
745 [label=<Surface_habitable_logement &le; -1.378<br/>squared_error = 0.0<br/>samples = 2<br/>value = -0.141>, fillcolor="#ffffff"] ;
744 -> 745 ;
746 [label=<squared_error = 0.0<br/>samples = 1<br/>value = -0.141>, fillcolor="#ffffff"] ;
745 -> 746 ;
747 [label=<squared_error = -0.0<br/>samples = 1<br/>value = -0.141>, fillcolor="#ffffff"] ;
745 -> 747 ;
748 [label=<squared_error = 0.0<br/>samples = 1<br/>value = -0.142>, fillcolor="#ffffff"] ;
744 -> 748 ;
749 [label=<squared_error = 0.0<br/>samples = 1<br/>value = -0.141>, fillcolor="#ffffff"] ;
743 -> 749 ;
750 [label=<Déperditions_renouvellement_air &le; -0.497<br/>squared_error = 0.0<br/>samples = 127<br/>value = -0.142>, fillcolor="#ffffff"] ;
684 -> 750 ;
751 [label=<Déperditions_renouvellement_air &le; -0.499<br/>squared_error = 0.0<br/>samples = 125<br/>value = -0.142>, fillcolor="#ffffff"] ;
750 -> 751 ;
752 [label=<Qualité_isolation_enveloppe_très bonne &le; 0.97<br/>squared_error = 0.0<br/>samples = 2<br/>value = -0.132>, fillcolor="#ffffff"] ;
751 -> 752 ;
753 [label=<squared_error = 0.0<br/>samples = 1<br/>value = -0.117>, fillcolor="#ffffff"] ;
752 -> 753 ;
754 [label=<squared_error = -0.0<br/>samples = 1<br/>value = -0.147>, fillcolor="#ffffff"] ;
752 -> 754 ;
755 [label=<N°_étage_appartement &le; 4.667<br/>squared_error = 0.0<br/>samples = 123<br/>value = -0.142>, fillcolor="#ffffff"] ;
751 -> 755 ;
756 [label=<Déperditions_murs &le; -0.357<br/>squared_error = 0.0<br/>samples = 121<br/>value = -0.142>, fillcolor="#ffffff"] ;
755 -> 756 ;
757 [label=<Deperditions_enveloppe &le; -0.455<br/>squared_error = 0.0<br/>samples = 67<br/>value = -0.143>, fillcolor="#ffffff"] ;
756 -> 757 ;
758 [label=<Déperditions_renouvellement_air &le; -0.498<br/>squared_error = 0.0<br/>samples = 41<br/>value = -0.144>, fillcolor="#ffffff"] ;
757 -> 758 ;
759 [label=<Année_construction &le; 1.291<br/>squared_error = 0.0<br/>samples = 40<br/>value = -0.145>, fillcolor="#ffffff"] ;
758 -> 759 ;
760 [label=<N°_étage_appartement &le; 2.131<br/>squared_error = 0.0<br/>samples = 28<br/>value = -0.145>, fillcolor="#ffffff"] ;
759 -> 760 ;
761 [label=<Année_construction &le; 0.939<br/>squared_error = 0.0<br/>samples = 26<br/>value = -0.146>, fillcolor="#ffffff"] ;
760 -> 761 ;
762 [label=<Année_construction &le; 0.838<br/>squared_error = 0.0<br/>samples = 17<br/>value = -0.146>, fillcolor="#ffffff"] ;
761 -> 762 ;
763 [label=<Déperditions_ponts_thermiques &le; -0.448<br/>squared_error = 0.0<br/>samples = 14<br/>value = -0.146>, fillcolor="#ffffff"] ;
762 -> 763 ;
764 [label=<Période_construction_1989-2000 &le; 0.929<br/>squared_error = 0.0<br/>samples = 2<br/>value = -0.148>, fillcolor="#ffffff"] ;
763 -> 764 ;
765 [label=<squared_error = 0.0<br/>samples = 1<br/>value = -0.148>, fillcolor="#ffffff"] ;
764 -> 765 ;
766 [label=<squared_error = -0.0<br/>samples = 1<br/>value = -0.148>, fillcolor="#ffffff"] ;
764 -> 766 ;
767 [label=<Déperditions_ponts_thermiques &le; -0.447<br/>squared_error = 0.0<br/>samples = 12<br/>value = -0.146>, fillcolor="#ffffff"] ;
763 -> 767 ;
768 [label=<Deperditions_enveloppe &le; -0.455<br/>squared_error = 0.0<br/>samples = 10<br/>value = -0.145>, fillcolor="#ffffff"] ;
767 -> 768 ;
769 [label=<Année_construction &le; 0.744<br/>squared_error = 0.0<br/>samples = 4<br/>value = -0.144>, fillcolor="#ffffff"] ;
768 -> 769 ;
770 [label=<squared_error = 0.0<br/>samples = 1<br/>value = -0.143>, fillcolor="#ffffff"] ;
769 -> 770 ;
771 [label=<Surface_habitable_logement &le; -1.37<br/>squared_error = 0.0<br/>samples = 3<br/>value = -0.145>, fillcolor="#ffffff"] ;
769 -> 771 ;
772 [label=<squared_error = 0.0<br/>samples = 1<br/>value = -0.145>, fillcolor="#ffffff"] ;
771 -> 772 ;
773 [label=<Déperditions_murs &le; -0.358<br/>squared_error = 0.0<br/>samples = 2<br/>value = -0.145>, fillcolor="#ffffff"] ;
771 -> 773 ;
774 [label=<squared_error = 0.0<br/>samples = 1<br/>value = -0.145>, fillcolor="#ffffff"] ;
773 -> 774 ;
775 [label=<squared_error = 0.0<br/>samples = 1<br/>value = -0.145>, fillcolor="#ffffff"] ;
773 -> 775 ;
776 [label=<Deperditions_baies_vitrées &le; -0.48<br/>squared_error = 0.0<br/>samples = 6<br/>value = -0.146>, fillcolor="#ffffff"] ;
768 -> 776 ;
777 [label=<Année_construction &le; 0.666<br/>squared_error = 0.0<br/>samples = 2<br/>value = -0.147>, fillcolor="#ffffff"] ;
776 -> 777 ;
778 [label=<squared_error = 0.0<br/>samples = 1<br/>value = -0.147>, fillcolor="#ffffff"] ;
777 -> 778 ;
779 [label=<squared_error = 0.0<br/>samples = 1<br/>value = -0.146>, fillcolor="#ffffff"] ;
777 -> 779 ;
780 [label=<Qualité_isolation_enveloppe_très bonne &le; 0.97<br/>squared_error = 0.0<br/>samples = 4<br/>value = -0.145>, fillcolor="#ffffff"] ;
776 -> 780 ;
781 [label=<Protection_solaire_exterieure_(0/1) &le; 0.598<br/>squared_error = 0.0<br/>samples = 2<br/>value = -0.145>, fillcolor="#ffffff"] ;
780 -> 781 ;
782 [label=<squared_error = 0.0<br/>samples = 1<br/>value = -0.145>, fillcolor="#ffffff"] ;
781 -> 782 ;
783 [label=<squared_error = 0.0<br/>samples = 1<br/>value = -0.145>, fillcolor="#ffffff"] ;
781 -> 783 ;
784 [label=<Déperditions_ponts_thermiques &le; -0.447<br/>squared_error = 0.0<br/>samples = 2<br/>value = -0.146>, fillcolor="#ffffff"] ;
780 -> 784 ;
785 [label=<squared_error = 0.0<br/>samples = 1<br/>value = -0.146>, fillcolor="#ffffff"] ;
784 -> 785 ;
786 [label=<squared_error = 0.0<br/>samples = 1<br/>value = -0.146>, fillcolor="#ffffff"] ;
784 -> 786 ;
787 [label=<Déperditions_ponts_thermiques &le; -0.447<br/>squared_error = 0.0<br/>samples = 2<br/>value = -0.148>, fillcolor="#ffffff"] ;
767 -> 787 ;
